{
    "name": "basic_network",
    "layers": [
        64,
        128,
        64,
        6
    ],
    "activation_hidden": "relu",
    "activation_output": "softmax",
    "optimizer": "adam",
    "learning_rate": 0.001,
    "weights": [
        [
            [
                -0.040363951389628894,
                0.22340294261525254,
                0.17156407770632115,
                -0.12271588178254672,
                0.09641247268705948,
                -0.244131583694789,
                0.12744142399646777,
                -0.08718278832560465,
                -0.04724980347063265,
                -0.2638839277564175,
                0.006385822185740591,
                -0.04675240711497964,
                0.09669703421868955,
                -0.22350434724020565,
                -0.0889888765498071,
                0.03447810687013648,
                0.21219751907851306,
                0.0224533664604359,
                -0.13021218122646736,
                -0.20833578475115924,
                -0.05228214459240123,
                -0.0085993375881139,
                -0.005997282535912302,
                0.1386713783439949,
                -0.10854203209562266,
                -0.12490024920855473,
                0.1356086668787472,
                -0.05976673829699153,
                0.2175717762887696,
                -0.2087421989333531,
                -0.010734069267533201,
                0.08147810700292364,
                -0.202323419056173,
                0.05225949449700069,
                0.0641238894150488,
                0.12097761251563008,
                -0.19575260150821272,
                -0.07102043414049147,
                -0.061863508009610164,
                0.08388353659881752,
                0.00965877779081575,
                0.30186372244678045,
                0.1116143905327462,
                0.018221736519411724,
                -0.14660456984022832,
                0.21586689963795938,
                -0.01963689579441412,
                -0.0767368894543852,
                -0.043082966065073204,
                -0.1302264336342229,
                0.22581063611167357,
                -0.25516119917334446,
                -0.10515071597805896,
                0.11254317098100118,
                0.03989040662361723,
                -0.0022475009009301676,
                -0.11112242614674235,
                0.0690586769581611,
                -0.13822267945958167,
                -0.07829441126467371,
                -0.03178609736025926,
                0.011974627288409947,
                -0.2076993069073842,
                -0.13403960280499766
            ],
            [
                -0.11989776872055971,
                0.17846345147289353,
                0.005648054852760172,
                0.18376236445799676,
                0.23742070546734403,
                -0.257245479675311,
                0.17596198377577435,
                0.10264628653295431,
                -0.06419701161166906,
                -0.14593881853445634,
                0.06924391006597208,
                0.11931723320413772,
                0.20201280100740912,
                0.1454108288740975,
                -0.04447250907159234,
                0.22741378870021348,
                -0.10694247486014732,
                -0.1895366725007129,
                0.07100102366525664,
                0.07360529110713676,
                0.20506459036855884,
                0.23681229471519868,
                -0.1253157542732942,
                0.08846596318525247,
                -0.3396567288811181,
                0.1942738187288251,
                0.03091243733144823,
                0.010112408125217923,
                0.009792311040123455,
                -0.1401667182830894,
                0.24856603831287505,
                0.05525391526478981,
                -0.05820198589346904,
                0.0695541691451092,
                0.21256870799256378,
                -0.1498117130337756,
                -0.29169987947011,
                0.20449332342668705,
                -0.005551631379450743,
                0.01863955759816416,
                0.09610736262059742,
                -0.10759703058805732,
                -0.10683985981791694,
                0.15796234166345985,
                0.1716137272065154,
                0.12934937487669454,
                -0.2753861457095178,
                -0.23112048701248683,
                0.23883410268743557,
                -0.45167088964660784,
                0.171543327818883,
                -0.07576587342527269,
                0.282015709665976,
                0.4140302540182668,
                -0.12452968543209392,
                0.274343086502619,
                0.08432794773839163,
                0.10991123310004426,
                -0.13189962596463606,
                0.05898245225494976,
                0.13059014163696084,
                0.32604678995970954,
                -0.05696335267871612,
                0.029663709898584426
            ],
            [
                -0.07072807008689258,
                -0.19517455651828458,
                0.05486723668601666,
                -0.24453458129958255,
                -0.10877656033983402,
                -0.037132230715946235,
                -0.0552383204335072,
                0.26343084160749175,
                -0.0779110252402884,
                0.06167350453573668,
                0.04873061414410189,
                0.15175001124391885,
                0.048291857319692266,
                0.09378880077965963,
                -0.008928278663682758,
                0.15171874518882164,
                -0.030096124226490995,
                0.21390147368492587,
                0.18913414166903916,
                -0.06595895331493043,
                0.3165289974323507,
                -0.09202177583780569,
                0.10233058367475069,
                0.17966893896145522,
                0.038876524754601294,
                0.08600497382812694,
                0.10537329403698739,
                0.020909819305036017,
                -0.03678186307692833,
                -0.28638699827904457,
                -0.09446590434504919,
                -0.19146736809310747,
                0.2675046906489985,
                0.22241801728503618,
                0.04433408249268525,
                0.1669231931010211,
                0.026995182633888164,
                0.09824612627467753,
                0.18124920414604956,
                0.013311020171977456,
                -0.0033069051321049743,
                0.04220845330374003,
                -0.17929100821019395,
                -0.46266094042115885,
                0.22039685292094122,
                0.16298733836680812,
                -0.13198766325517072,
                -0.01395051515349749,
                0.14599131341007748,
                0.06691247674177102,
                0.15738512991897885,
                0.11623752585044192,
                0.09211541617085027,
                -0.08186853981506807,
                0.20119507571709483,
                -0.055233905262510354,
                0.12706894414773698,
                0.12535719825161423,
                0.05867547675615194,
                -0.09047457639243604,
                -0.24006020877557166,
                0.14677589213872488,
                0.39600760596634366,
                -0.044251616635839104
            ],
            [
                0.17156060471800658,
                0.06446134510738015,
                0.06472102767566301,
                -0.0726726368691867,
                -0.03145464584914923,
                -0.21926426861746173,
                0.10090868460558305,
                0.02694972009885201,
                -0.0153865659161405,
                0.0047831324193434305,
                0.03749967694088597,
                0.1335868957036124,
                0.06508505292297652,
                0.25628948615048086,
                0.3557595289705263,
                0.002105755781683745,
                -0.05335478194005741,
                0.03961424521466536,
                -0.08625980611593714,
                -0.3993497281633085,
                0.20260475120562832,
                0.10010458201900335,
                0.011799568608849764,
                0.1324689817633437,
                0.010673952015293033,
                -0.17716880990878622,
                -0.11159267559677669,
                0.11493511974037365,
                -0.02998645852396174,
                -0.1438939769653657,
                0.011199944804483058,
                0.3674977359719823,
                0.07642337019102653,
                -0.010080952063246029,
                0.18159095419465598,
                -0.19511582978035552,
                0.11964048073265823,
                -0.32480381135093067,
                0.01857383972841289,
                -0.30370518370672334,
                -0.10082011923334781,
                -0.14383353071525506,
                -0.11709401051782194,
                0.09824980813818565,
                -0.04143733605504533,
                -0.14361380644536167,
                -0.070795442133988,
                0.2743393284107119,
                0.17065095132628422,
                0.1329092495964001,
                0.14191749826776492,
                0.380840917795185,
                -0.09074558861504955,
                -0.028948238478400085,
                -0.254427686586878,
                -0.2120545457555722,
                -0.11117930860251628,
                0.15082233978641124,
                0.3342316905821179,
                -0.12627803520377354,
                -0.2666859720813943,
                -0.04585343563794379,
                -0.10282940630207452,
                0.28931865378420357
            ],
            [
                0.020615653796171828,
                0.31653385799012357,
                -0.2776993474086611,
                -0.12256991436500549,
                0.1656981951183414,
                0.04806634883972576,
                0.1722944839883987,
                -0.07116372255043274,
                -0.2016038911043401,
                -0.16739307533122738,
                0.09199938677872668,
                -0.05547726050417978,
                0.01939817749474057,
                0.04717306319527193,
                -0.36533075919654673,
                0.3024778714958099,
                -0.018877059448522304,
                0.19297058535744577,
                -0.10252206289288131,
                -0.041119896201977056,
                -0.1533614743238336,
                -0.10881393405901395,
                0.17337142851982326,
                -0.20692481618865927,
                0.09376947717454552,
                -0.36244354906674203,
                -0.09047646183850216,
                0.21540254370696976,
                0.022334888673379044,
                -0.04570511635417887,
                0.22727935300149565,
                0.010897474493707864,
                0.0741697223119303,
                0.02661721982727089,
                -0.2774041176285697,
                0.04504205149285638,
                -0.24103821784793733,
                0.18515814763663838,
                0.013079725467050461,
                -0.2790926995116264,
                -0.12109079639933724,
                -0.20594921590406845,
                -0.1128199548652537,
                0.39703544306834043,
                0.07322676726051872,
                -0.09855707739803408,
                -0.15057617639352805,
                0.2033447906496924,
                -0.10279344750530613,
                -0.008555291855423813,
                0.05413360160296723,
                -0.026849469462623964,
                0.07876859401349762,
                -3.677012142070877e-05,
                0.11640169090352104,
                0.041869847844066395,
                -0.210009479816872,
                -0.0828286310053987,
                -0.09439444924355732,
                -0.08733545643167398,
                -0.02572542250618305,
                -0.031378263464259724,
                -0.07596048436696405,
                -0.08018708079109273
            ],
            [
                0.262693917898894,
                0.04796580827234881,
                0.039584299787357065,
                -0.24832385278909758,
                -0.2151357222777426,
                0.1543408586988368,
                0.08038054439352682,
                -0.13414385915156113,
                0.08866550388031931,
                0.04652532878248017,
                -0.24496454461195644,
                -0.042004339039123664,
                0.03170825514990532,
                -0.18504361885579976,
                0.06774319191263796,
                -0.18648759440774837,
                0.08762366643627284,
                -0.0034527896329445743,
                -0.20668938329266603,
                0.2254826329322844,
                0.40443527176478766,
                -0.21946455764116082,
                -0.15304722181829172,
                -0.06283744776765818,
                -0.2963300094684012,
                -0.07368337633789197,
                -0.02753593090484654,
                -0.17795058678372586,
                -0.06456390191864458,
                0.06980424007866907,
                0.2907668363668756,
                0.21979524839160794,
                0.204677857042266,
                0.23719031476694247,
                0.2083881608241949,
                -0.13650804145393294,
                -0.09228263238366552,
                -0.08673314388824925,
                -0.043800028600984774,
                -0.061523504481162464,
                0.042211866117428706,
                -0.1109606227246356,
                0.11880342161457956,
                -0.06596361088531638,
                0.03133382834925893,
                0.33121609333323404,
                -0.10762741718785848,
                -0.07285749440328863,
                0.004225899617160093,
                0.02932326829459117,
                -0.3025024196710136,
                -0.04290818445877671,
                -0.33085346732901755,
                -0.34903268193040116,
                -0.015240026094137353,
                0.09663960320047639,
                -0.2659194998977323,
                0.009008794180883817,
                -0.020841528489786317,
                0.1514062446898325,
                0.20600738289219625,
                0.2762410029030322,
                -0.22553437079232172,
                0.07779301897957396
            ],
            [
                -0.13355621933429876,
                -0.20221449591013987,
                0.04898118742948546,
                0.07011117652223574,
                -0.033321246546235375,
                -0.08170543454966574,
                -0.003232858020523729,
                -0.3125197617809089,
                -0.19783264545736365,
                0.2266099257135208,
                -0.0006102055786146904,
                -0.3791529208442266,
                -0.3978063181162136,
                -0.27220788573724564,
                -0.13310979236870848,
                -0.3258774502680914,
                0.034134036184727254,
                0.046780692014638234,
                0.14520516236587627,
                -0.11389656092023061,
                0.02066335904002385,
                -0.0407528898618015,
                -0.17393480757195978,
                0.02385886494533808,
                0.22872952721388695,
                0.10901917438779551,
                -0.01886272290909329,
                -0.0874848763198275,
                -0.2542138074371187,
                -0.0019105168716703595,
                -0.2924076793849137,
                -0.029820182921539463,
                0.15497625167366433,
                0.24857184712153732,
                0.0721416580241299,
                -0.04491378006449549,
                0.37559407575284925,
                -0.024253087076327003,
                0.15998310509784805,
                0.0673975667819066,
                -0.08060408633206678,
                -0.07880054557304014,
                -0.04270035125875824,
                0.1377670445825429,
                0.026730684328977516,
                -0.05205863767957008,
                -0.2525932895611169,
                -0.2639288312700086,
                0.1884324710449611,
                -0.25259528862285036,
                0.17848821583365923,
                0.24700180046995615,
                0.16584954063381396,
                0.2697182338250166,
                -0.11224801315602555,
                -0.054498253344234394,
                0.11462602463970838,
                0.20484568061312902,
                0.09339635479336576,
                0.020337816421359883,
                -0.022401016683283374,
                -0.004624529294340881,
                -0.008419310315043716,
                0.4019660494112634
            ],
            [
                -0.15249205363407067,
                -0.12335508746082449,
                -0.1826824046460524,
                0.1268967622925949,
                -0.1525424940635858,
                0.1659576145067203,
                0.2326262985308709,
                -0.4593589408237573,
                -0.24351164520639323,
                0.1138048186629595,
                0.21588105329304436,
                0.13703453522099077,
                0.04858900181322727,
                -0.0472055746604457,
                0.04859586450736194,
                0.07560968202103077,
                -0.17730836116378104,
                -0.4100675738914943,
                0.18083842994105861,
                -0.022880197124344557,
                -0.17459758270807124,
                -0.041912087819673344,
                -0.15998463215420242,
                0.0855998921906318,
                -0.016051328816253412,
                0.18848653158367593,
                0.16322359855871185,
                0.009162848893330619,
                -0.16322032212419288,
                -0.11736615901256846,
                -0.07927920576741762,
                -0.00014974432457968712,
                0.20162959252162888,
                0.2170006891013362,
                0.028745957748012852,
                -0.1856473282676625,
                0.13626891812296643,
                -0.03176135502475993,
                -0.04151939495940917,
                0.015057967332791002,
                -0.05324238805859667,
                0.1755439272633048,
                -0.1609951105818781,
                -0.2838128993530815,
                -0.10823019991299322,
                -0.2549541469591808,
                0.012266771068715644,
                -0.1256181144058626,
                -0.05836050109099503,
                0.2006938628094709,
                -0.20129737838048062,
                0.08157252269285593,
                0.2554218487201121,
                0.0738939399340882,
                -0.26157238854615017,
                0.014672494366214655,
                0.36820301166058156,
                -0.15000220425115812,
                0.225336959029146,
                -0.3580247949860325,
                -0.24095499819916374,
                -0.17585167973317617,
                0.12714893343867537,
                0.05876119758645817
            ],
            [
                0.16345275419498362,
                -0.3080381718272818,
                -0.07368275525899723,
                -0.10192038761386615,
                -0.046154920119726085,
                0.07548972606620324,
                -0.43907739716774297,
                0.2826636434627765,
                -0.0637429803876383,
                0.14506119716411797,
                -0.08640242825420798,
                -0.04224613964894144,
                -0.04698754994470404,
                -0.16729962468873308,
                -0.07087619958088787,
                0.11489455153632584,
                -0.027172017482822674,
                0.09675704278163653,
                0.031127347902587955,
                -0.22924684640593904,
                -0.02921971474507092,
                0.32274299618189345,
                0.12600848361146658,
                0.29847527399664636,
                0.07258717476737872,
                0.15433175053668285,
                0.4696160986686556,
                -0.05365674887225808,
                0.03398731996048368,
                -0.07156884659650029,
                -0.02441274788150465,
                0.028625454335018254,
                -0.1404776851842641,
                0.29430124937512897,
                -0.09790796178620308,
                -0.05695831701995935,
                0.17661807297215393,
                -0.0375273184478364,
                0.030759855757401287,
                0.16459143248428776,
                -0.058835974654586044,
                0.07022164955811577,
                0.06516783490259664,
                -0.11904474581660315,
                0.07137612599665334,
                0.21611577259518752,
                -0.16198518761136704,
                -0.04327397884851726,
                0.07494885141693937,
                -0.06745271542863705,
                -0.015325092276176226,
                0.025492902367359214,
                -0.04577883845922579,
                0.1168222787304426,
                -0.016073525679129383,
                -0.05200193438429552,
                -0.10381618824912371,
                -0.06744533430594975,
                0.17208146993538698,
                0.1444069938722343,
                -0.08905866815651162,
                0.17093374258261307,
                0.3658116726750581,
                0.19059456051389215
            ],
            [
                -0.2753671886826639,
                -0.2200615914874815,
                0.19698147889079046,
                0.040022786837518726,
                -0.20611434232949571,
                -0.02709603660656961,
                -0.09999565279944651,
                0.10384777271512534,
                0.10893252879395474,
                -0.26180026117826277,
                -0.10275261881990416,
                -0.21451530716660105,
                0.030779412245457664,
                0.14266361075785192,
                -0.09771546751797373,
                -0.2437790216360853,
                0.060876339759133126,
                -0.23107007674617902,
                0.11985735797555529,
                0.10939808796318089,
                -0.12898267937030805,
                -0.019387088250931533,
                -0.08160485395148294,
                0.28113426681801984,
                0.276762442683417,
                -0.34256291160682384,
                -0.09096481047112051,
                -0.1156362867129885,
                0.16923258575805994,
                -0.05350874423527542,
                -0.2743979093374306,
                0.1904353444861958,
                0.08601600274235427,
                -0.15086228314492695,
                -0.19493146379708964,
                0.3788343340881414,
                -0.05851922177314299,
                -0.007281478565645557,
                -0.36545550410799443,
                0.018408098310709827,
                0.07771969888030478,
                -0.20509556039477297,
                -0.07119104145285353,
                0.11522337734988684,
                0.13409572806015638,
                -0.020788490927502817,
                -0.16795174626166468,
                -0.011626169776276334,
                -0.05618235201114931,
                0.33067078257139304,
                -3.638519026430364e-05,
                0.0932419422916816,
                -0.07281886339882929,
                0.05628917016763519,
                -0.02047929975356113,
                -0.22433474380295604,
                -0.0884084280418275,
                -0.0680435452757363,
                0.11028264148760604,
                -0.2614182578849423,
                -0.00986085108788975,
                -0.08448406641301513,
                -0.16925160196229952,
                0.16805045110970956
            ],
            [
                -0.20351860557403562,
                0.06891899944975777,
                0.13073143126776476,
                -0.0008476543802448734,
                -0.015429099656773594,
                -0.10662577873923139,
                0.02388956693682787,
                0.1905292534858361,
                -0.06481666193757935,
                -0.08251409728163185,
                0.030699532881926537,
                0.47906811406057415,
                0.2380122324313001,
                -0.2884055152511699,
                -0.20746382986743678,
                0.09205697213059143,
                0.18182012124216007,
                0.07102482261570925,
                0.04885760888040283,
                -0.12430980993084646,
                -0.16942862164201813,
                0.034056477922612974,
                -0.04804394923483643,
                0.06407794980623188,
                0.024719000514351285,
                -0.16365560062962,
                0.14428332862991183,
                -0.42753399230084344,
                0.037764299408437854,
                0.06740975038406188,
                0.051016763460203965,
                -0.10304395211050146,
                0.06779608712687682,
                -0.08486372970614996,
                0.16585347105705792,
                0.2526909892591936,
                -0.09873960574253937,
                0.12582470299217596,
                -0.1997551403901982,
                -0.23878365481122327,
                -0.38731225050026225,
                -0.11805168627950528,
                -0.05574424536637327,
                0.06807252625536679,
                0.21769705182486843,
                -0.15844525483835403,
                0.10660059110649285,
                0.12040632343238049,
                -0.2772835919007017,
                0.109362130514064,
                -0.41437905889918436,
                -0.046010259877443116,
                0.2039703171874498,
                -0.11851404406727549,
                0.1267220635772796,
                -0.26703107961188965,
                -0.03266913502422709,
                -0.002311861830275682,
                0.1431116353138164,
                0.03194692524052676,
                0.0025570905134065123,
                -0.07034614509743825,
                0.21228996377938247,
                -0.1302750470438401
            ],
            [
                -0.10647552809830953,
                -0.27001110305514825,
                0.014207300880196014,
                -0.03582184259431024,
                0.038366407418399105,
                -0.10503700532140021,
                -0.05232130476577949,
                -0.18787482485234483,
                0.05565600752355412,
                -0.24890559342501234,
                0.05587429461339889,
                -0.03136741617144939,
                0.011997268384645604,
                0.5397803643473332,
                0.040146901215386915,
                0.4122805162717381,
                -0.06061516392243083,
                -0.19482420961100747,
                -0.16038762673518253,
                -0.08881086000765394,
                0.10823579077975023,
                0.12065229064196412,
                0.09582446406911288,
                -0.1945982712199546,
                -0.1563613565831747,
                -0.3692416563416811,
                -0.136795946537976,
                0.09233654623171947,
                -0.2248425491524256,
                0.3097221955495181,
                -0.0742550183882776,
                -0.17554862774372934,
                -0.2190676423122818,
                -0.0851935042560162,
                0.11950298146671114,
                -0.19894244842184197,
                -0.018684421377192884,
                -0.2748604124024076,
                -0.05044561903450751,
                0.21006865672175407,
                -0.10401343482083261,
                -0.05595179414378162,
                -0.2140928096933247,
                0.13934798761274822,
                0.032297761382256145,
                -0.13385386699706173,
                0.07656092334974843,
                -0.16237982873449489,
                0.03731066858038043,
                0.08910342467951439,
                -0.07999822897022982,
                -0.2335162484785361,
                -0.001862164373190657,
                0.12098989403635223,
                -0.08901793903789938,
                0.10578340618248767,
                0.002444304684469225,
                0.14105742288469467,
                -0.19729692774785015,
                0.068484220376362,
                -0.16599291296023092,
                -0.09498088683158348,
                0.09677131064092323,
                0.07081359886773687
            ],
            [
                -0.3277883702143904,
                -0.23805733215496946,
                0.18831940097554867,
                -0.13844680695992148,
                0.05632214480430022,
                0.00453157936863867,
                0.19181783392495882,
                0.27237314716769784,
                -0.3228213703310888,
                0.05094690220923152,
                0.10050430022025762,
                0.004382287498757964,
                -0.14374277898058208,
                0.1886939929742659,
                0.17979537365900203,
                0.0656802803484789,
                -0.1797429037593599,
                -0.16740436102029846,
                -0.018733169854843666,
                0.14882402739164427,
                0.4280409120740583,
                -0.1565103805898426,
                -0.07233813610479853,
                0.1478971594739716,
                0.010348956080400656,
                -0.11301625159744699,
                -0.4689839785247648,
                -0.044460121597477906,
                0.3054939438855909,
                -0.020583553800211974,
                -0.10549130369215005,
                0.20671216273962328,
                -0.08264723101343908,
                -0.15480314815461954,
                0.1491065102934287,
                -0.0033466389000111805,
                0.026028081959941857,
                -0.027941359755172257,
                0.13439563499938584,
                -0.20387631749245982,
                0.24877278655903867,
                -0.30765844939748077,
                -0.10135689758044295,
                0.07256434807702383,
                0.2469303162736791,
                0.012349575350081186,
                0.0964858174061726,
                -0.05647780249244411,
                -0.12514613174731312,
                -0.18959817762137757,
                0.3013723587974296,
                0.007898912144304117,
                -0.0072096653778836945,
                0.10922482506583778,
                0.0053472554363411355,
                0.19256623379748306,
                -0.15520040515151093,
                -0.05615432892626049,
                -0.1919307932198374,
                -0.03183731223984882,
                -0.1563432493054125,
                -0.07043160174314203,
                -0.015014379172751578,
                0.3228793978886237
            ],
            [
                -0.21343486575323095,
                -0.07785854515674417,
                -0.11284299274475988,
                0.16879856124213954,
                -0.03152115041882233,
                -0.019951473707794737,
                0.31043912417698283,
                -0.08687260648908046,
                -0.671005159314573,
                -0.046783717409601175,
                0.07148670380701441,
                0.09389192405672714,
                -0.11652305733254263,
                0.13573334083172262,
                -0.19353788282893797,
                0.011392552255397995,
                -0.01781676519403595,
                -0.2338636951195651,
                -0.07748743485315297,
                0.06027292251058502,
                -0.14340300755671254,
                0.04056820224855825,
                -0.19175467651106645,
                0.03625437381095095,
                -0.033002311607005765,
                0.19271795540302333,
                0.14282222375346115,
                -0.14681314216859323,
                0.20931753290494723,
                -0.12373761495173816,
                0.042246392071214375,
                -0.10499077273869904,
                -0.15778525987045422,
                0.04414892811150464,
                -0.09963363424600108,
                0.16565032714184802,
                0.15838141772632022,
                0.15074205326062967,
                0.07554349641776202,
                -0.20310581524275848,
                0.24702325774004166,
                -0.2454089399144732,
                -0.1283566526257445,
                -0.225657359016923,
                -0.016150232899463424,
                -0.0872140753820435,
                0.036665801075159814,
                -0.017679992300347648,
                -0.18304887223351865,
                0.07661254992276198,
                -0.1404645691575923,
                -0.041666360935495715,
                0.2211278184502118,
                -0.17134437941358469,
                -0.0075573426116406035,
                0.10704657464529131,
                0.15502513673746496,
                -0.013743907824607972,
                -0.009190266390539135,
                -0.08311720672621213,
                0.021973743573537007,
                0.26103741895671556,
                0.18332343083959407,
                -0.04312743452915769
            ],
            [
                -0.058867689719359545,
                0.3053404313705419,
                -0.03376590985430051,
                0.18280555134504764,
                0.28631820939200425,
                0.02935453949652338,
                0.25363510407103845,
                -0.2612251319207926,
                0.12263720877670291,
                -0.018368845149344736,
                0.08607077516442414,
                -0.07054959349062231,
                0.2914095419455869,
                0.14214804463948016,
                0.023969495449288704,
                -0.11939397450592441,
                0.14916695261167048,
                0.1481310378809783,
                -0.18652345438830806,
                -0.1530160144469374,
                -0.2858104230772662,
                -0.06278099372892061,
                0.22391510091636194,
                -0.3113486887032797,
                0.33010760625612584,
                -0.0856896402095535,
                -0.2243487923328528,
                -0.4819247280340311,
                -0.3250042047744859,
                0.007046822639232021,
                0.20824048719548416,
                -0.028596775379990252,
                -0.03536204820078535,
                -0.024973971890389933,
                -0.08409559745836209,
                -0.17593736251145486,
                -0.001843226331660167,
                -0.06517009611907384,
                0.11053096425353595,
                0.22338890595025354,
                -0.3035996652912259,
                -0.22089073717946672,
                -0.011976954310492035,
                0.010890889250582639,
                0.2812042442826689,
                -0.3684450569828253,
                -0.012242530437529733,
                0.08478988370588171,
                0.08184991967536885,
                -0.14602732652497277,
                -0.07606764105559581,
                -0.19934815714915302,
                0.17222490819849332,
                0.27766548917790557,
                -0.1079393126304226,
                -0.028428185024094436,
                0.0703861747210446,
                -0.02729005453176474,
                0.022998707703145434,
                -0.051978544201988844,
                -0.34572369243943957,
                0.3903233910761922,
                0.10842410566259789,
                -0.0787013369041752
            ],
            [
                0.4921652345648249,
                0.010799498142053152,
                0.07715336210816197,
                0.004681024303082376,
                -0.11265428908561893,
                0.07009238438660356,
                0.26498401693461754,
                0.3685863972477943,
                0.2357600106419848,
                0.074140597741665,
                0.13790544847153446,
                0.059086879700526194,
                -0.3534285130636143,
                -0.0459733323306018,
                -0.0755494255895933,
                -0.10247713673955045,
                0.1918040602140673,
                0.16880863446389704,
                -0.18100356102759727,
                0.3339763504917748,
                0.09580340862313051,
                0.0842166824995184,
                0.10269391536664726,
                0.019695434941015937,
                -0.1262352665997999,
                0.09004874167954727,
                0.21249150819760107,
                -0.024620278791883377,
                -0.1900093865974607,
                -0.035236158703974986,
                -0.07823144985695833,
                0.046968081154931667,
                0.3012875191011654,
                -0.2333614424936011,
                -0.1588885690470172,
                0.3191857156533761,
                -0.1853956927234919,
                -0.1560273037723089,
                -0.0005549436981221629,
                0.07378043316970584,
                -0.05970766310277434,
                -0.07124231674288527,
                -0.2961348010698564,
                0.01297719931499612,
                0.16691730699288523,
                -0.20515113261928009,
                0.061506571860165025,
                0.16916518391797367,
                0.15862504521554632,
                -0.04619331264219956,
                0.22815806115206305,
                0.10723347304407943,
                -0.021265801921776524,
                -0.07126093565920283,
                -0.028199645764993515,
                0.1631340719664574,
                0.22677968302878193,
                -0.02826385840499218,
                -0.03908221164021583,
                -0.13603076508337686,
                -0.22694629819391682,
                0.0941822804089214,
                -0.013513408786702185,
                -0.19135535229523973
            ],
            [
                0.05967383817989295,
                0.04001739061654042,
                -0.11436438548774908,
                -0.07413527352777917,
                -0.23956829827143902,
                0.04729645880442646,
                -0.13251488447605633,
                -0.05420151863536356,
                -0.004715843228208803,
                0.047911710175122794,
                -0.36829989285313414,
                -0.293087158701251,
                0.08130243010837211,
                0.6186288065838789,
                0.18044919572460524,
                -0.14736101903189597,
                -0.3505402329027255,
                -0.01244094391309404,
                0.2335180516637623,
                -0.08693108348490966,
                -0.14451165566260402,
                0.09707307645243403,
                0.045461234499635086,
                0.1223948626625108,
                0.36896528942901435,
                -0.08833580985963381,
                0.13831760785688485,
                -0.03224066186277135,
                0.04907016511165795,
                -0.277558156134722,
                -0.22914953731277643,
                0.05902655909457113,
                -0.14191570616459204,
                0.09932635869071776,
                -0.47262063780553676,
                0.0041177046114957054,
                -0.12695914658694255,
                -0.18472035722217608,
                0.28996217405818325,
                -0.26382738033176106,
                0.12127946489562462,
                -0.09504421679319587,
                -0.1733413030570466,
                0.141395046844856,
                0.26441546584735254,
                0.3765168658187433,
                0.20073579532163674,
                -0.1225081868733047,
                -0.07073756013276224,
                0.07662772684246542,
                0.07226460733316,
                0.04346713763176261,
                -0.11052528586394242,
                -0.028165735301724233,
                -0.1790828716298518,
                0.05169504996118468,
                -0.05947804243902572,
                0.28453073366512915,
                0.06343773229475977,
                -0.005980145889050135,
                -0.25625794581934286,
                0.16019055379044475,
                0.047024747013331515,
                -0.16026561732683717
            ],
            [
                0.09314841235707264,
                0.17313073510808505,
                -0.12666560774066926,
                -0.058214729822665054,
                0.21778717176939522,
                0.031177845166459574,
                0.4009756936212885,
                0.057293634736524594,
                0.1980540910238233,
                0.03294756032574831,
                0.1760358600834686,
                -0.07043766669197811,
                0.05288277499684477,
                0.04624815568569172,
                0.07460649240063308,
                -0.2564411056804784,
                0.16748125198392574,
                -0.17650334049427818,
                -0.1075426400087914,
                -0.3715306015362882,
                -0.05532503023906197,
                -0.01650818778284849,
                0.006887971394968653,
                -0.0873819515393404,
                0.06024956230183985,
                0.010224659045782408,
                0.15593604773745293,
                -0.36051813269052246,
                -0.10181361648000468,
                -0.014238498576623612,
                -0.05149472463104765,
                -0.07694641841654525,
                0.23306354633089382,
                0.141668207761408,
                -0.15896464172468078,
                -0.39218747747906924,
                -0.02880376068322858,
                0.1677606803145665,
                0.3261019076179971,
                0.14526842880699964,
                -0.21693036438427926,
                -0.35209146832131055,
                -0.10348284882270056,
                0.3189192945851763,
                0.13823798277880972,
                0.10135385845518839,
                0.22874490952890983,
                -0.056628414207357716,
                -0.049417506775797315,
                -0.10088332667674395,
                -0.00918722766321856,
                0.055667156409830665,
                0.2643475799964512,
                0.2603943501496885,
                -0.24630578763169317,
                0.14830768485083876,
                -0.2868041282278149,
                -0.0991649285681431,
                0.07062139191976965,
                -0.2958155091343395,
                0.3527260092207676,
                0.011739180511304891,
                0.03277124230510475,
                0.36189127757408884
            ],
            [
                0.03128296546326341,
                0.2698722606299868,
                -0.4502628501485181,
                -0.04514776483539397,
                -0.23210745359220636,
                -0.15826923734798326,
                0.09499072951447045,
                -0.08272677647376876,
                -0.09598786932420382,
                0.19539784913418548,
                -0.2003930059081869,
                0.048205261717008493,
                0.07774764938260802,
                -0.28572627447978904,
                -0.12975224164697766,
                0.08033356085157521,
                -0.054163174684949515,
                0.20839542313007006,
                -0.12901572728732788,
                0.17137608087001932,
                -0.07709021128493262,
                0.06486301219121329,
                -0.0988902542592332,
                0.044580484549830005,
                -0.2857854995304397,
                0.07895038686954965,
                0.09847625541314915,
                0.07983697156663679,
                -0.22933712479882876,
                -0.2676378985068101,
                -0.3134754819052042,
                0.07996940315512766,
                0.14734415230291817,
                -0.2302476116090787,
                -0.0017450282940979828,
                -0.37279712880384613,
                -0.10217815835238388,
                0.029324564376232216,
                -0.10057338767330673,
                -0.049373192947909386,
                -0.14338247300108756,
                0.08887623317947363,
                0.035888370667359545,
                -0.29654691697392477,
                0.05682659863866899,
                -0.0022717234797482665,
                0.1370448719674491,
                0.03201474236067337,
                -0.12423069750894727,
                -0.14790017805450825,
                0.1676060187398144,
                -0.2822269866398809,
                0.00123083034432811,
                -0.22257886995387793,
                -0.14098818135741642,
                -0.1546573908799384,
                -0.15697086977969466,
                -0.0019847136185412186,
                0.07678010023067043,
                0.1043116797319608,
                -0.2844022136078889,
                -0.16464314066873842,
                0.22750161915601044,
                -0.06617367608050297
            ],
            [
                -0.31703634073237336,
                -0.10577515661190696,
                0.0839466830078813,
                -0.09408115430694627,
                0.03143903209908788,
                -0.03594223729036891,
                0.15625290961174534,
                0.25460108250735947,
                0.04746508113744445,
                -0.15924103193431868,
                0.03309811699776316,
                0.10637126799807453,
                -0.19154756340897103,
                0.0318300718861994,
                -0.4251829094419204,
                0.1267930203267352,
                -0.18115471209812697,
                -0.1101181793226121,
                -0.17638614410652137,
                0.10638215330509884,
                0.03516202396257044,
                -0.07535540559025487,
                -0.17945770033056488,
                0.10304539716447995,
                -0.004423319179115836,
                -0.1307148876034069,
                -0.07857924952469687,
                -0.4464137181913058,
                -0.1566830394192732,
                -0.019631604190546957,
                0.1891142766449926,
                -0.13859038530102852,
                -0.11137190395605215,
                -0.11290673917242088,
                -0.16444600463853107,
                0.013461244865340876,
                0.11257275961432527,
                -0.13962805061446573,
                0.1884320072542601,
                0.04804482697211091,
                0.01418948943924003,
                -0.3075124165791215,
                -0.07480413262672127,
                0.053590879775443925,
                0.09894456020423961,
                0.2434265524843155,
                0.1044560896670903,
                0.029929837042095408,
                0.12282039023167368,
                -0.046375993360641035,
                0.285295996843155,
                0.04630229660840283,
                -0.3040983163419964,
                0.2815630267201218,
                -0.24749066206567322,
                0.16123656121719707,
                0.04231248958773762,
                -0.047702838994019704,
                -0.3058739820025276,
                -0.02813714760121358,
                -0.13493034248575309,
                -0.46388869171522046,
                0.030683923302348072,
                0.15514196209762374
            ],
            [
                -0.05853189187572383,
                0.16841789993525752,
                0.18179594485349695,
                0.04015669295087859,
                0.012287488334351292,
                -0.26171925479719094,
                0.4399777675533122,
                0.15064132423268403,
                0.09560010790319073,
                -0.1675908924820984,
                0.0070616835103691055,
                -0.10617037399174738,
                -0.10782280972427512,
                0.06693915308359155,
                0.23968609065750884,
                -0.0069209189388864285,
                0.11582699056532246,
                -0.2878066417292281,
                0.40835315258828314,
                0.19399356852330996,
                0.14129544393131005,
                0.15669788207849886,
                -0.11567017699126246,
                0.05940397258472504,
                -0.013126549131980247,
                0.2210961202660708,
                -0.1792429653950336,
                0.08862619082588438,
                0.3047157955520547,
                -0.2576906221535075,
                -0.036847319354399756,
                -0.03388281307301329,
                0.10820249985068865,
                0.04446474339536544,
                0.32158958684417077,
                0.1304974712325869,
                0.21559318529594632,
                -0.05632619033306281,
                0.3198591029582916,
                0.0646335590292797,
                -0.3207043236870356,
                -0.13645774921013618,
                0.15536298293474646,
                0.31086917688181487,
                -0.11028622896728867,
                0.11768047901271589,
                -0.09430527463890567,
                -0.01660963553661126,
                -0.10192304149944326,
                0.08826307119586965,
                -0.4080416185156462,
                -0.4270118689307394,
                -0.1948528732632363,
                0.12050671796121883,
                -0.09388148110628042,
                0.10504601757067183,
                -0.17175217448393618,
                0.051305994507148865,
                -0.025338861885544614,
                -0.1566514743254551,
                0.3703183172682854,
                -0.09207267544834083,
                -0.058183444794724266,
                0.16062004313014963
            ],
            [
                -0.07775381322801984,
                -0.0014779134190454866,
                0.002636611988535769,
                -0.033151861355033875,
                -0.13771398989491726,
                0.36122451106751874,
                0.057060806614167375,
                -0.15543039124319863,
                -0.15756410167412754,
                0.07612343013578239,
                -0.0725666459581038,
                0.034251392979921254,
                0.012559451324683522,
                -0.027854769937508645,
                -0.08926265935031968,
                0.19810966192224108,
                0.03217083781152226,
                -0.08269690002464222,
                -0.060908958246580804,
                -0.27365310954578087,
                0.0017866227251060937,
                -0.062086995109695904,
                -0.2039847618663178,
                -0.24265785630430964,
                0.06610475205728324,
                -0.13214181779095954,
                0.08159924424509331,
                0.00461904424907577,
                -0.21409044075544664,
                0.1059453193723523,
                -0.113795596050073,
                -0.03632283389599763,
                -0.0639815511526326,
                -0.03444015968876021,
                -0.049732306884793,
                -0.1743266620137894,
                0.07212606927926168,
                0.11425780059197681,
                0.18679213538235256,
                0.04154614673276343,
                0.06564601276355282,
                0.23586993022043104,
                -0.2985597843349194,
                -0.06430667010322604,
                0.11546237380630615,
                0.37224949502302707,
                0.2157536448108971,
                -0.09264496232476148,
                -0.3087464706337547,
                0.16578858612350403,
                0.1447888120922674,
                0.05906927025166785,
                -0.06842063535807712,
                0.05306804600247912,
                0.05786229820883877,
                -0.0917595847434265,
                -0.006018894392817235,
                -0.03129129048136945,
                0.07305659078809601,
                0.03942158531052868,
                0.03546392460395837,
                -0.07782345674853948,
                -0.23625659676447508,
                0.1597801044717789
            ],
            [
                -0.2671575478246123,
                0.09144253931907842,
                0.06443560946882285,
                -0.1145577345050194,
                0.17363744131896441,
                0.2264376967308002,
                0.3770975508356441,
                0.23776684058180303,
                0.065244490746107,
                -0.06040238991068633,
                0.04367329627610583,
                0.21604139958742985,
                -0.07601474452874542,
                -0.33231738460667753,
                0.10285448271949672,
                0.058977474431515006,
                -0.033799114714508686,
                -0.04283378318193512,
                0.051381743223660084,
                -0.09881334805406781,
                -0.350008793961202,
                -0.12322887363037266,
                -0.18978497570737252,
                0.3837041383897837,
                0.1451079524762308,
                -0.0974726320278142,
                -0.0934416405488821,
                0.2888174601857999,
                -0.17593336578302532,
                0.12944878691684414,
                -0.01051785948976513,
                -0.07185650000991414,
                -0.0580036244356925,
                -0.28819857861543546,
                -0.10274801461563364,
                -0.12483270376870846,
                0.15353418469782473,
                -0.08425268599223668,
                -0.344107482994205,
                -0.03581921419776203,
                0.06620948575067198,
                -0.09317371263770277,
                -0.43997527729637703,
                -0.1803721795790815,
                0.1002049197302143,
                -0.059680905435019097,
                -0.24762155423252763,
                0.11813558896020553,
                -0.21277004426402343,
                -0.028830384568863346,
                -0.09289466362183263,
                0.11898051843788918,
                0.11057009139706893,
                -0.006116839174416899,
                -0.09159980397429066,
                0.07913926125206104,
                -0.08600404796859254,
                0.07417624875238418,
                -0.22078965487391305,
                -0.11848707610468855,
                0.15055542587411044,
                -0.03961198192242656,
                0.12001224728511595,
                -0.18941097792898703
            ],
            [
                0.07768069145942412,
                -0.2250184106193293,
                0.054236455127242116,
                0.04832193219766085,
                -0.3379447036424123,
                0.2177893440396119,
                -0.1596015267177061,
                -0.26912284067970627,
                0.21627158239679425,
                -0.09365022749272084,
                -0.12524823884950717,
                -0.09893798371547721,
                0.2503663230850475,
                -0.011020813121779733,
                -0.04359549102809861,
                -0.07147249952425701,
                -0.39068322525322147,
                0.07155318323672047,
                -0.06411150178913812,
                0.06673911317708546,
                -0.13769640266613106,
                -0.03900801630934704,
                0.08963250190311176,
                0.06176216543065797,
                -0.1389544627137126,
                -0.29545219264450806,
                0.32499012997572696,
                0.09695541604427164,
                -0.054887161313694255,
                -0.1563148786022174,
                0.0713536601428944,
                -0.11312543547138154,
                -0.170787349597573,
                -0.40723583476274783,
                -0.00508566532609257,
                -0.18366493801180078,
                -0.10204929103642206,
                -0.006363579386832839,
                0.4127297197298968,
                -0.2119335845910515,
                0.02321679978622053,
                0.2608042730752509,
                -0.44530090892536084,
                -0.08408709414678689,
                -0.03703343114540492,
                -0.10948219890393199,
                -0.007339736694584829,
                0.12524885317405826,
                -0.0811791106024798,
                -0.043620292648585204,
                -0.026594945708251303,
                0.08100255184401388,
                -0.08936955589412988,
                -0.004088671747383606,
                -0.049094193089015706,
                0.05615005037397327,
                0.17933018147695823,
                -0.07541327994446595,
                -0.0067349998589052475,
                -0.40609264086168734,
                0.12255669057863666,
                -0.2546653314837683,
                0.34472417969605373,
                0.2870375568253587
            ],
            [
                0.01137418748190073,
                -0.22643588915128998,
                0.07437544605160668,
                0.22232487271063853,
                0.0843017984959178,
                -0.06041988190930214,
                0.0927069399825052,
                -0.06617052743038589,
                -0.28197245267419907,
                0.09595687343290361,
                -0.09014299519625787,
                0.13613641660979373,
                -0.07276554720879677,
                -0.21646543599473358,
                -0.14055509600133298,
                -0.11932003963271764,
                0.07308004301715612,
                -0.4338195817474666,
                0.04177555266825959,
                -0.08564018855789973,
                -0.0029343289104707287,
                -0.16924541721180122,
                0.06885529935419876,
                -0.2407189679209054,
                -0.2646186708972705,
                -0.1677610524074902,
                -0.038744229443066956,
                0.06982835735035288,
                -0.3167350191633122,
                -0.07522077831075273,
                -0.2565014291509581,
                0.060883914092001445,
                -0.21107778903536323,
                -0.25198272687336914,
                -0.33022030338828656,
                -0.07748193380415384,
                0.45368698519336803,
                -0.23456566620701721,
                -0.07239631239604664,
                0.2395117027896651,
                0.11556193435185383,
                -0.05864929119789858,
                -0.02138004661155626,
                0.2604621099347109,
                0.032122487616483536,
                0.01819476696435766,
                0.33373673094209433,
                -0.1344257401547423,
                0.017579342772635842,
                0.06923445051888219,
                0.003875130639982993,
                0.25556340213911166,
                -0.006137600248539184,
                -0.04844090481710712,
                0.12308017121372555,
                0.13275019918794356,
                0.16040131230583796,
                -0.28274272197460965,
                -0.14478494582011844,
                -0.17570158767718466,
                -0.1783779234353174,
                -0.15865776480330424,
                0.120138300707823,
                -0.36725203550203134
            ],
            [
                0.06388457862680558,
                -0.04610105779023378,
                0.2018581300662331,
                -0.11313325173223902,
                -0.04187128442963297,
                -0.042671595646005187,
                0.27477821766441707,
                -0.2983298272765651,
                0.14965128662786292,
                -0.07071720252933004,
                -0.146758106625712,
                0.24817846660331663,
                0.1832622985523136,
                0.16172595306437923,
                -0.06465465271016728,
                0.1308654693982772,
                0.3459219766682173,
                0.018055848254843805,
                0.4213619477905617,
                -0.035332461474200494,
                0.10539645661064108,
                0.24526435758474788,
                -0.0796618781035915,
                0.3226064726268127,
                0.11595562950963854,
                0.05641498875118463,
                0.1047350792834664,
                0.03827267605230238,
                -0.11874540933523965,
                -0.02984612849411164,
                0.3237762374738583,
                0.041783384770406475,
                0.2371649630956762,
                -0.040371320000546065,
                -0.03210115481207407,
                -0.019224412934083626,
                0.06135702424886665,
                0.039849053318703954,
                0.04102747578393193,
                -0.2311442453414284,
                0.41370691504715185,
                0.2254341477657466,
                0.0863853321646436,
                -0.0516108697782962,
                -0.09769118429861637,
                -0.19278388759968812,
                -0.025402197669199676,
                0.43642655206417746,
                0.03168323214708717,
                0.23761246360574675,
                0.02496943648651071,
                0.25572450345196884,
                0.23208780194650333,
                -0.09549417132864846,
                0.08349950201839214,
                0.20131000432064894,
                0.053325640128107345,
                -0.011705321279874599,
                0.03593727265462841,
                -0.09175765186558693,
                0.05120326705758506,
                0.07808765391392529,
                0.15367741208816832,
                -0.08042799871079394
            ],
            [
                0.45668621882783156,
                0.10593333153290636,
                -0.38104061493102676,
                -0.13338449760721968,
                0.15856144991630847,
                0.16870845110940696,
                -0.27653001267373556,
                0.585715157367634,
                -0.0945624548809154,
                -0.26614921326804375,
                -0.08120585821374686,
                0.001654279802672093,
                0.06137635254620292,
                0.019870747877154576,
                0.17430415070018707,
                -0.12153621735004765,
                0.19267297541094913,
                0.02319017749951911,
                0.056582185939745226,
                -0.188855530222359,
                -0.1824724943329362,
                0.1782759328239017,
                -0.3292876031307895,
                0.2841926651235311,
                0.32108422426966843,
                -0.24213151185785037,
                -0.3580707792508774,
                0.1014592108143999,
                0.002037839592327373,
                -0.3367106898122649,
                -0.04740489804778889,
                -0.03767969269783684,
                -0.11913067745010017,
                0.10827534874507469,
                -0.029343582680938157,
                -0.40683366237658714,
                -0.15839516482697508,
                -0.05626531606248058,
                -0.27436617049260104,
                -0.17639453067903363,
                0.10481330603771159,
                -0.005793907492592182,
                -0.12426207749645403,
                0.20174989737520002,
                -0.028815140212434264,
                -0.05442291556729579,
                0.084940994244999,
                0.0677268826003471,
                -0.15527152664008778,
                -0.40566672034399,
                0.33676109278972,
                -0.04351542089032737,
                0.004544226223212734,
                -0.21042881893909188,
                -0.24982469099674973,
                -0.026826805704058137,
                0.047375447137775535,
                0.12023606534996129,
                0.0779479983249256,
                -0.2613948705747394,
                0.01723773594353014,
                0.20790532029664088,
                0.0779908839838148,
                -0.14571400011254518
            ],
            [
                -0.0997775122263226,
                -0.12316654966974516,
                -0.053536928089966775,
                -0.030068396623451468,
                0.002140697598085728,
                0.14743864324353623,
                -0.1508496037598426,
                -0.25301401445291916,
                -0.1363541889797491,
                0.00628870013393139,
                0.21910899025325062,
                -0.09320563991462515,
                -0.27187936319181255,
                0.09605363843285915,
                -0.037361607965849114,
                -0.016246009181118053,
                -0.3053081985703687,
                0.036521723261219156,
                0.022593187914048494,
                -0.04572695554223275,
                -0.11061696305240423,
                0.27453208650827615,
                0.029309709288298964,
                0.2766724659199719,
                -0.05440674314223301,
                0.1857774531145811,
                0.3164111328433618,
                0.15230658530635144,
                0.14511237264932508,
                -0.1720101267731594,
                0.11941098392145169,
                -0.14122950413844318,
                -0.15049275904558856,
                0.011307350802587669,
                -0.17484251678834467,
                -0.07889418945937521,
                0.08007247144673652,
                0.0015816923993899443,
                0.2293760713327707,
                0.10616454141434227,
                -0.16288916899845696,
                0.0814423267190671,
                -0.10871808021024736,
                0.2615244316305508,
                -0.06390969543576099,
                -0.44219368692309446,
                -0.1217766437231389,
                -0.19049249914341637,
                -0.06576521108358256,
                -0.4338167958261067,
                0.16637573530363445,
                0.06898287099908963,
                -0.22393368322181362,
                0.13861537134990773,
                -0.12046008509889403,
                -0.032923179929446496,
                -0.16601542131619657,
                0.2681663960319484,
                0.2142497696684897,
                -0.25024733236287344,
                0.03881067127346729,
                0.19532683093015832,
                -0.30519051659419555,
                0.0059850501585464524
            ],
            [
                -0.11183862868301808,
                0.02713601920349356,
                0.08271856728248855,
                -0.15504314918454348,
                0.04241078472199811,
                0.000499692880470026,
                -0.33185908812106657,
                0.24719371140238877,
                0.07051892435008703,
                -0.11695633253744256,
                0.4973196673072644,
                -0.2925475867198004,
                -0.0865281242596911,
                0.053714645679319016,
                -0.3639337722643883,
                0.32411990166619625,
                0.30459107541882424,
                -0.07062748040938617,
                0.00793978646184122,
                0.066374166326851,
                0.4064677407525817,
                0.10170352635449817,
                0.21280799995163796,
                0.18076914761028534,
                0.024216077080305744,
                0.19130622721264642,
                -0.08146125702348772,
                0.06895227108826046,
                -0.11934266458987118,
                0.027776493065615297,
                0.31968421895869253,
                0.3554129788033219,
                -0.039551888607977245,
                -0.05947861252513679,
                0.20375539723448993,
                -0.05582083517512772,
                -0.06841511386024335,
                -0.17004903650089903,
                0.10166239007200711,
                -0.12050606826015622,
                -0.3046155227223083,
                0.15022440946615065,
                0.0592063313444192,
                0.057078328387913775,
                -0.08496925612671778,
                -0.07000831767838411,
                -0.12615250089333713,
                0.07194286075855247,
                0.07170608473119737,
                0.06246426390727207,
                -0.11295635117148049,
                0.2763318168405488,
                0.2562420217741756,
                -0.16825193794783394,
                0.0019931146331672207,
                -0.25111346884513175,
                0.06029292215893748,
                0.19993691807799863,
                -0.1448766582467334,
                -0.2638194117055026,
                -0.20163449590677818,
                -0.04448636901112118,
                -0.005230039709568381,
                -0.06729396143956592
            ],
            [
                -0.3466559883506852,
                -0.039434933452764644,
                0.06843091552706979,
                0.06186439713454573,
                -0.416804135303323,
                -0.026101174459345924,
                -0.016022482658034368,
                -0.14087717127620752,
                -0.033921817389688996,
                -0.21086050115124003,
                0.2985618963049665,
                -0.16263425448817506,
                -0.09996026279534441,
                0.25145312226484007,
                -0.1919117313835309,
                -0.08514713903417397,
                -0.10753731781234609,
                0.054596427467408844,
                0.04181738073797392,
                -0.2517014762907306,
                -0.217459532415152,
                -0.09509814335323476,
                0.329745128712328,
                -0.06751200996835612,
                -0.13092832135617966,
                -0.025364587019341023,
                -0.08665883904552558,
                -0.28959618082967087,
                -0.351395577891183,
                -0.21549825058044478,
                -0.03543266484991086,
                0.28573697593329367,
                0.09778725171869308,
                0.14202908439331802,
                -0.10244668422697098,
                -0.04062959735655608,
                -0.2279726744732964,
                0.09944261557953682,
                -0.29904754514956894,
                0.08587853831907631,
                -0.03589100251883621,
                0.005562429691317591,
                -0.323926189105746,
                -0.06926481712836183,
                0.06700741329694232,
                -0.1715341436159447,
                -0.028003346472561877,
                -0.18559425835527177,
                -0.2262392914287273,
                -0.0737168196854121,
                0.2755638349692811,
                0.049076327766566334,
                -0.05661477369832278,
                -0.29871941298921,
                0.173667320476864,
                -0.030580927089422245,
                -0.29062219163904607,
                0.2404506704465113,
                -0.02521255978284006,
                0.47277269350074347,
                0.15862100188854136,
                -0.040437875560639915,
                0.14086535801134387,
                0.11654502161772196
            ],
            [
                -0.22150158166217201,
                -0.16613601019778773,
                -0.13687167679760373,
                -0.21232945958964314,
                0.36105743402490525,
                0.16020006615973112,
                0.28210360460521566,
                0.10443927431972094,
                -0.17191478405164526,
                -0.05383327694687645,
                -0.010245786363972683,
                0.15634547951226319,
                0.11391014671699473,
                -0.08755964197800206,
                0.08126137167935753,
                0.24597108328396386,
                0.08908467771411342,
                -0.09121885931502717,
                -0.07560663279439506,
                0.0487087440951596,
                -0.013206803771158503,
                0.10016041332723398,
                0.029544049410544043,
                -0.014545842558135041,
                -0.24017741570148396,
                -0.17388332923442867,
                -0.17908653283178672,
                -0.07941519558544616,
                0.03885003928075635,
                0.02343591090678734,
                0.12410498011786918,
                -0.22786002228413696,
                0.17706945498612436,
                -0.2389845078234176,
                0.01539712182173748,
                -0.05383595939984557,
                0.03476419345753003,
                -0.11321949842649764,
                -0.10306426623202083,
                -0.23377061091485438,
                -0.16487148902950127,
                0.018083468999518574,
                -0.13047758522131392,
                -0.3093722829594097,
                0.18283265664145726,
                0.005641105917125501,
                -0.14786576803404625,
                -0.1325329084951757,
                -0.19157484310304726,
                0.027844930608303717,
                -0.06385711096657563,
                -0.1491286328807124,
                0.22157520717918716,
                -0.04659076019166993,
                0.17810114355070233,
                0.1410477562274063,
                -0.18769490655203316,
                0.1718929298906557,
                -0.3278395898990505,
                0.12952750373257862,
                -0.14432527439645806,
                -0.034823252695800874,
                0.33215529322204856,
                0.07703807499235057
            ],
            [
                -0.2944054971640006,
                -0.19493950485536563,
                0.0011582880270014093,
                -0.06993018550409123,
                -0.07055192036095823,
                0.11154973022842915,
                0.18771900891173882,
                -0.21521971663858303,
                -0.033975578769961906,
                -0.1659352412765353,
                -0.10538007843613163,
                0.08743366789682658,
                0.3046966627138712,
                0.18998969207468136,
                -0.07663291996802465,
                0.22185615654610816,
                0.15355320570724368,
                -0.036918253697401204,
                -0.0670002921159903,
                -0.34764100257389746,
                -0.11902664850194017,
                0.07023531286338712,
                0.12542926165775434,
                -0.039857858547102235,
                0.10929678452281909,
                0.1950323153738169,
                -0.16869555072733572,
                -0.16266625007571212,
                -0.05222126910791681,
                0.0009986395652685789,
                -0.11535893630742758,
                -0.035303549463312885,
                -0.2173352507662398,
                -0.04769188993343252,
                -0.23898308315739927,
                0.04860920094406529,
                0.024351420051066934,
                -0.13730137897839514,
                0.15485148223650513,
                -0.15729064466027057,
                -0.25609974826299514,
                0.15067031887548435,
                -0.22304070982809196,
                0.0912333240624981,
                0.12985333079861125,
                0.04137278161527886,
                0.05814989701132719,
                0.10553372935079763,
                -0.14526997842095438,
                -0.016795771632872634,
                0.22776702875660512,
                0.31568650239925183,
                0.18321944182766473,
                0.004623761325987114,
                -0.03407720455638298,
                -0.16232392782331068,
                -0.11579077730437301,
                0.1011569619744603,
                0.12124862064842427,
                -0.20008605708511515,
                -0.13721579258757485,
                -0.04021715553045799,
                -0.06396350583500902,
                0.2491799488824772
            ],
            [
                0.02436541355120941,
                -0.10853577379184784,
                0.11462672297940855,
                -0.22213813936926557,
                0.05097488685780457,
                0.08681864972576736,
                0.22182503859199235,
                0.03621727314705512,
                0.1747370181765751,
                0.1304672790435554,
                -0.07128462175811238,
                -0.07184110783317248,
                0.12192725072822246,
                -0.047957473010976026,
                -0.3961603280069271,
                0.08317350271821236,
                0.02218889834586389,
                -0.06170464924897053,
                0.2522190368075852,
                -0.17991405801617583,
                -0.19769773798161142,
                -0.18313643641848146,
                -0.05418560490679546,
                -0.028914601597076064,
                -0.07005399651016034,
                -0.4256127714018877,
                -0.016840517990121075,
                0.13474182180869348,
                -0.06877539297106917,
                0.02691913192098135,
                -0.10297445115736151,
                -0.1563233601739963,
                -0.07839130497263647,
                -0.13251131551898487,
                -0.251694039481128,
                -0.20936698777393278,
                -0.020962627368607836,
                -0.04701252605269856,
                0.011920791008872998,
                -0.026662680583738264,
                -0.05708126924151577,
                -0.3575354290993379,
                0.006586519205103036,
                -0.24388046495299362,
                0.2416979625594987,
                -0.2631401547302736,
                0.1553080470331313,
                -0.18191622398399337,
                0.07281873278848479,
                -0.009446708205878986,
                -0.15178901044130677,
                0.10542895150413623,
                -0.05453715287795805,
                -0.24240012460343688,
                -0.20416993749372173,
                -0.015979290141378628,
                0.0033270589657144476,
                -0.10017860194961009,
                0.10016038750921318,
                -0.27877325312189777,
                0.13605682164188782,
                -0.29899209464688287,
                -0.1098649127376447,
                -0.09118547874286519
            ],
            [
                0.378765577690887,
                0.23300326824607442,
                -0.28759395156515005,
                0.10246974752191515,
                0.18984279835018764,
                -0.28965988072157156,
                0.3081289730863967,
                0.3195613292841381,
                -0.001498464392028166,
                0.045289837837769555,
                0.021148696955439944,
                0.10045681437886171,
                0.1744125135869336,
                -0.1654747973572737,
                -0.24981069318627575,
                -0.2909116683871091,
                0.11247974673048769,
                0.08951890788944442,
                0.2683002244276799,
                0.066167472118588,
                0.013600917770596943,
                0.3149731103672206,
                -0.09249556152809371,
                -0.4669458240505798,
                0.0081935662933178,
                0.22413320751935398,
                -0.3819205441685912,
                0.17641809983497153,
                0.04815887394346559,
                -0.02579333641298807,
                -0.017785266711362546,
                0.0629516150776386,
                0.12660155138531096,
                0.05857376132507985,
                -0.09264456410241768,
                -0.31836559368213585,
                -0.06242091662274766,
                0.09721270126931843,
                0.026809602506386455,
                0.07513110542800532,
                0.15703921514162045,
                0.3314292021614046,
                0.36405759322290754,
                0.11494036743598947,
                -0.00783636818736575,
                0.029468847610199696,
                -0.08432540835279767,
                -0.048376122913195804,
                0.06246205706467476,
                0.20788298945690037,
                0.13281682359086897,
                -0.11480818276930113,
                -0.052618311787241044,
                -0.1006284578302281,
                -0.1782062384597957,
                0.04184438173481313,
                -0.23235997343067227,
                -0.054655274188808944,
                -0.0645156882781946,
                0.2690045045847544,
                0.21294448132205995,
                0.055805128403000226,
                -0.057928990686270755,
                -0.0669200787583307
            ],
            [
                -0.0011827484414813167,
                0.051588639510624555,
                0.3079622269385065,
                0.15824352755321955,
                -0.2834276044592559,
                0.16699537747654036,
                -0.06392831395625878,
                0.07803100222020924,
                -0.2111094666137702,
                0.09123246628733218,
                -0.2827325864379483,
                0.12242518616245898,
                0.16051406213711375,
                0.16818439528592435,
                -0.11375559294500186,
                -0.0774842350401763,
                0.05034156099439703,
                0.06941960072286718,
                -0.09563147530014722,
                -0.1161250422017882,
                -0.18904460171875265,
                -0.19517982210364174,
                -0.01917980557670004,
                -0.12404658472085954,
                0.24777557750609713,
                0.4653231053752799,
                -0.07793080839673118,
                0.10256363231105997,
                0.10634181264642736,
                -0.02123869845050239,
                0.028957457630787338,
                0.11324615404100559,
                0.2321627640970671,
                0.15023664715056906,
                0.29199647564818637,
                -0.27042512164016713,
                0.04058395620417164,
                -0.029156988189928217,
                0.06934757317671815,
                0.04732653816663338,
                0.020220621634986034,
                0.015287497629092506,
                -0.15395567765762463,
                0.09712962470784814,
                0.12139772148847656,
                0.19544873694028383,
                -0.13849354415542317,
                0.07103642130873065,
                -0.03818488508061895,
                0.09386945686406777,
                -0.09210596194731278,
                0.19052554204312208,
                0.2750992291978554,
                0.15546383046281778,
                -0.1437415674046045,
                -0.12167866019968557,
                0.031545551234256695,
                0.03147357882503759,
                -0.1138564023390651,
                -0.009687024611301451,
                -0.19409747663957957,
                0.02058346035883877,
                0.1531520619867768,
                0.051584279847482
            ],
            [
                0.1927602335719134,
                -0.24968408100855252,
                -0.09782465800387417,
                0.018199324110868765,
                0.02617579367563881,
                -0.15414549347207343,
                -0.07745694904195462,
                -0.08736773953289129,
                0.016407299100021765,
                0.165219087219129,
                -0.20331856577139848,
                -0.2339505579092588,
                0.07301570831717048,
                0.05558194186385146,
                0.19977491459042682,
                0.24944842969040604,
                0.14765153986223828,
                -0.20233977810144868,
                -0.005610939936593387,
                -0.007136466676145342,
                0.02376531070710907,
                -0.06699383753031057,
                -0.012406119151458046,
                0.32951594646326127,
                -0.1979117126373148,
                0.09071135970908055,
                0.2784297610240273,
                0.08809509274370365,
                0.579130016842239,
                -0.0725032951509463,
                -0.10074780218995613,
                0.11930680371730491,
                0.06623929425501268,
                -0.0153018623859177,
                -0.06447643013803146,
                -0.17215561337838953,
                0.048832193313145415,
                0.0034089630515133865,
                -0.4133693512603014,
                0.0696885020107864,
                0.21243888404608252,
                -0.38900808114061025,
                -0.012947672403599399,
                0.13927010385561123,
                -0.12044724589859886,
                0.2809566661778003,
                -0.08876934433557622,
                -0.06964093899416451,
                0.11306481831416612,
                0.31260893956549596,
                -0.12738232123528234,
                0.24003429461457487,
                0.08684104682552303,
                -0.012963689645837941,
                -0.04190396605116147,
                0.18175737332390515,
                0.10926302628237278,
                -0.17712938568955292,
                -0.004408151949979975,
                0.23241998671553893,
                -0.27643970842398213,
                0.34716242856991336,
                -0.11318110661726948,
                -0.017154377654717015
            ],
            [
                -0.15546918967921147,
                -0.08234523459961776,
                -0.21922621452529278,
                -0.15667038827185034,
                -0.1196700246087398,
                -0.14921282030396105,
                0.02806920304982815,
                -0.21801794200353303,
                -0.012168051541271697,
                -0.10088551291971638,
                0.2781910886838886,
                0.00638839455027342,
                -0.03880784409441863,
                -0.422910724781488,
                0.08688933096500173,
                -0.036958605135038895,
                0.03171711307279113,
                -0.03322486685852432,
                0.004847049479633427,
                -0.36008278171558145,
                -0.02804456170458903,
                0.1667276665955992,
                0.18051942316664493,
                -0.14095384330945582,
                -0.16023611383514916,
                -0.48950456094148503,
                0.21830917110972442,
                -0.21727773384626808,
                -0.19453522778177793,
                0.08926234264372511,
                0.11551622937685187,
                0.276215634646412,
                -0.16957578769914983,
                -0.047378081066759045,
                -0.0649798748548146,
                -0.20237864591850735,
                -0.2033465681157204,
                0.032345892428656646,
                0.1659417867916795,
                0.2918198299639048,
                0.3485265200339673,
                -0.23188724307205874,
                -0.21120889502132512,
                0.014394134744948271,
                0.007881868982546511,
                -0.20108195049052457,
                -0.16211172545256777,
                -0.020347717162664845,
                -0.03932004470033687,
                -0.19580832245670673,
                0.1843503957133565,
                0.14086692876975218,
                0.02271632480993572,
                -0.001408485682518543,
                0.16850339146837623,
                -0.005345126296035176,
                -0.07722505127746647,
                0.0994370991099848,
                0.02594011825926537,
                -0.03649982016968251,
                -0.14383259234629384,
                0.06505139092344978,
                0.1209008896075899,
                -0.01947975203607213
            ],
            [
                0.08033001574624919,
                -0.09796901537690551,
                -0.05507830579462204,
                0.19580480815862591,
                0.18875254544529854,
                0.06326888405156962,
                0.06832179050949265,
                -0.09449810786910327,
                0.08679161680443778,
                -0.13405635149437092,
                0.2805188043483056,
                0.2745479338899123,
                -0.19660099246741178,
                0.13171719525644113,
                0.14351567634379236,
                -0.20059897072996344,
                0.10438032403260677,
                -0.2473113439139064,
                -0.22042239833871657,
                0.0503916051766299,
                -0.14880828667394452,
                0.17519352803745353,
                0.06432375959219154,
                -0.20445413620248468,
                -0.09784061032160349,
                0.2024618651142148,
                0.06520377895115784,
                0.30204231581283636,
                0.18913299310568096,
                -0.13341748637090875,
                -0.03195027937801027,
                0.029268979559061513,
                0.18410929366403722,
                0.12721950244993072,
                -0.32234799046411533,
                -0.28994157658826547,
                -0.07562206083051912,
                0.23475719440407827,
                0.18439065246366643,
                0.2413650539869996,
                -0.3266067092323649,
                0.18415309549653955,
                -0.2400739299864552,
                -0.07638355584468597,
                0.11186770524304718,
                -0.09730666756580554,
                -0.24222397104609464,
                0.4101145006776932,
                -0.09188109777346025,
                -0.309746990180683,
                -0.10051790804512453,
                0.02550401694503819,
                -0.20932857866540008,
                -0.11487021662757026,
                0.12418408152191866,
                0.20148298076420268,
                0.16479619580772928,
                -0.09238313875216,
                0.21962550015030546,
                0.11225750006268327,
                0.03072423871715484,
                0.05444334506725376,
                -0.11632190831487273,
                0.040987182928823154
            ],
            [
                -0.35460873272489063,
                -0.1751990925468288,
                0.09938689410006023,
                0.061808644016270224,
                -0.1580891040677243,
                -0.10416327020771625,
                -0.26591699964182003,
                -0.004688563652016055,
                -0.15460869701845317,
                -0.21014159150984235,
                -0.1333353713753898,
                0.21788271777866156,
                0.004816680903262843,
                -0.12988451028292863,
                0.24084730488457026,
                -0.09136980924189803,
                -0.26273670562034623,
                -0.16019821562510697,
                -0.05926346641177201,
                0.24119074250924058,
                0.12135550521601805,
                -0.16891921919070751,
                -0.2607254903691917,
                -0.07753182789796977,
                -0.19802986951339868,
                -0.04315883577473618,
                0.18051939575965925,
                -0.01736412703399924,
                0.1732505376570944,
                0.0482979483474447,
                0.09220168481557309,
                -0.3040537328927423,
                0.1675907559037952,
                0.14436731714060613,
                0.04273292406500174,
                -0.253443945782711,
                0.22861766641114248,
                -0.07040737424616396,
                -0.2609814425231867,
                -0.13947183683723816,
                -0.01562596344747804,
                0.10571323058467665,
                -0.34445025182752564,
                -0.15403415976324056,
                0.23043879835941952,
                -0.025153026416590264,
                -0.49582832218983375,
                -0.218324018467168,
                0.21417818762747998,
                -0.2823008955759837,
                0.22906034213736828,
                -0.18739906268844153,
                0.003485278464104426,
                -0.09804529920036299,
                -0.12144414272419936,
                -0.04534135605771148,
                -0.1347056642633045,
                0.39562680655037297,
                -0.21647049632873475,
                0.20933638214306244,
                0.2634521746419031,
                0.01180443364898024,
                0.11514229330332544,
                -0.041969604433146485
            ],
            [
                -0.07948426442513981,
                0.13133722338752,
                -0.3762885263663431,
                0.013016450831887079,
                0.18550617877817974,
                0.08825335266454643,
                0.08176132681448954,
                0.0432370904677181,
                0.014958588555418572,
                -0.03206488042907695,
                0.06087065576213023,
                -0.11140289678552771,
                0.18321879581406553,
                0.07514439906934314,
                0.16273332323531356,
                0.4327178950614189,
                0.05907640477521711,
                0.06573786460264748,
                -0.04129478632788015,
                0.19273036581786548,
                0.4413235567478021,
                0.018998352950262035,
                -0.16269324203404187,
                -0.06832455036458443,
                -0.11810052721248146,
                -0.05558949848234319,
                -0.04680781195334087,
                0.4012428273316138,
                0.24724778420269133,
                0.3595662229624903,
                0.06547571886465828,
                0.04111022236444374,
                0.09046481969663331,
                -0.05384693762760977,
                0.01804451785908894,
                0.13129383235608172,
                0.14598404964224393,
                0.3992818001438709,
                -0.39168630139955735,
                -0.26496455464315016,
                -0.1982440623556704,
                0.23359128523485292,
                0.33994030433426137,
                0.11278191231128128,
                -0.25822359697161174,
                0.09066719132312046,
                0.3022630927630819,
                0.09124267174548062,
                -0.1769272518982095,
                -0.27165046581054036,
                -0.21441076621742178,
                -0.09896711649648096,
                -0.05237652287935498,
                0.10938412428648037,
                0.0447427412170092,
                -0.18918133592770195,
                0.11955990300335195,
                -0.015114205127791665,
                -0.3260034014904069,
                0.015115324687455477,
                -0.06102382017982245,
                0.17087553724347815,
                0.07387987390063375,
                0.12183792355687698
            ],
            [
                0.06951352419396732,
                -0.05378159563474534,
                0.08665935693368658,
                -0.12218820953160779,
                0.3483103435791526,
                0.02511263206112544,
                0.3572353118403561,
                0.10507774572834452,
                -0.015752848146380026,
                -0.14184902289744972,
                0.050507949772522695,
                -0.1460264840700561,
                0.06717413448115403,
                -0.18166378281264825,
                -0.07182884648902683,
                -0.19686831323543597,
                0.12596455352709054,
                -0.04229190228788614,
                -0.13051905789697943,
                0.10159680752387268,
                -0.3682378348163772,
                0.07414827893268758,
                0.12461519411947003,
                0.05136027175387259,
                -0.0037756617526444373,
                -0.18203775083156168,
                -0.023047665269421102,
                -0.052939327983254604,
                -0.1406737196628804,
                0.4202995994836758,
                0.0389310779591794,
                -0.12660854722697817,
                -0.13789687434369927,
                0.007440097172456789,
                0.06497362582466146,
                -0.017002013050201853,
                0.08038134567807113,
                -0.04725472472476401,
                0.03158644884196104,
                -0.12349416898634244,
                -0.05751363625554166,
                0.047868512459648065,
                0.009994847268993398,
                -0.15182350736011965,
                0.03906682320461203,
                -0.12382049631313206,
                -0.10409242015297923,
                0.20475958751336734,
                0.12468843900392011,
                0.006639085492023315,
                -0.06173465530660153,
                0.1706015318200792,
                -0.3112849498528032,
                -0.08609866520934441,
                0.0803168274794942,
                -0.02570731250740043,
                -0.17167733550496492,
                0.0019853735874737046,
                0.2899221638722878,
                -0.37293975124264944,
                -0.12691650150438283,
                0.047718752859886665,
                -0.32790384669542627,
                -0.04088122530682556
            ],
            [
                0.09838061510184457,
                -0.06426578856344467,
                0.09705022551885725,
                -0.21922468748547586,
                -0.009549748046293481,
                -0.25688948704651005,
                -0.030547839861073206,
                0.06509246090839403,
                0.05370973103613692,
