{
    "layers": [
        64,
        128,
        64,
        6
    ],
    "activation_hidden": "relu",
    "activation_output": "softmax",
    "optimizer": "adam",
    "learning_rate": 0.0008600583546412883,
    "weights": [
        [
            [
                -0.32354842258836114,
                -0.328144977912948,
                -0.41198446331035565,
                -0.43837767982836223,
                -0.5739928954858671,
                -0.19956633546951036,
                -0.4537013944200847,
                0.03675223379600076,
                0.8086641723875847,
                0.7852927405888902,
                0.8551596330937189,
                0.6592296740635329,
                0.7235979715210631,
                0.6448529801476713,
                0.7978061329471773,
                0.6656466963230285,
                -0.5899320577630704,
                -0.24503577922726372,
                -0.2848966915049559,
                -0.25378781563688046,
                -0.3200554742962479,
                -0.2664413132180513,
                -0.4156164518562484,
                -0.382855213026191,
                -0.22324395817652734,
                -0.16180697959537052,
                -0.21856812907015036,
                -0.2317061068208165,
                -0.3246107073248712,
                -0.30065293126318354,
                -0.23005777081372972,
                -0.34366463775935885,
                -0.29755482347299317,
                -0.2081292204240782,
                -0.2485794280000647,
                -0.22112823973943285,
                -0.3060984424783887,
                -0.3125711916186353,
                -0.42248498690645764,
                -0.25369031121452235,
                -0.48846661900997584,
                -0.37557453693343673,
                -0.35489273530477333,
                -0.3791512764454047,
                -0.21090386331874783,
                -0.295049938181894,
                -0.31486400090963074,
                -0.3519204105430086,
                -0.22640973355595345,
                -0.23064687793142344,
                -0.3488665256312174,
                -0.2724592501343408,
                -0.29835262516928157,
                -0.3003077177215022,
                -0.37996830491554445,
                -0.37285203626597246,
                -0.25296668167045355,
                -0.26984831405162585,
                -0.2762129931162347,
                -0.3525274276170891,
                -0.3524358855264191,
                -0.3718182566321017,
                -0.3311062001043604,
                -0.2541321414206492
            ],
            [
                -0.14627043483201072,
                -0.21872513763471968,
                -0.3927074288487675,
                -0.26615218356152526,
                -0.21490115719100597,
                -0.29833192792694535,
                -0.1568888995224555,
                0.18866797529666549,
                -0.11856930324578932,
                -0.198912795211011,
                -0.1476035047085234,
                -0.21075075385931347,
                -0.07927335632810921,
                -0.05443269091718023,
                -0.2267841893425967,
                -0.11296523667564083,
                -0.28140660103772464,
                0.10769041910225834,
                -0.14421646533580756,
                -0.13810982079713466,
                -0.08061676086373175,
                -0.3248369338706803,
                -0.3085221139075944,
                -0.22281495233149343,
                -0.2174921370098772,
                -0.5595719710325571,
                -0.32275411291680134,
                0.23367347644869335,
                -0.309529559991179,
                -0.9952588508683197,
                -0.4140236154386697,
                -0.0012027793165841616,
                -0.12512886336155343,
                -0.5376654051981051,
                0.5343962910420501,
                -0.39928897685200726,
                -0.22249723173663472,
                -0.09101556870756522,
                0.052622899201081076,
                1.7585130595078933,
                -0.2588555464700792,
                -0.30685266443165615,
                0.03785402344624199,
                -0.3064593401784494,
                -0.09012678237569847,
                -0.0635166489692426,
                -0.08910153605713048,
                -0.43089707525728077,
                -0.22252729334549695,
                -0.5769931568772741,
                -0.5165045863523298,
                -0.32039136133150553,
                -0.4237742966963044,
                -0.23224822631773345,
                -0.41884727227959995,
                -0.3683537170811114,
                -0.03386789542395409,
                -0.17942607767535543,
                -0.32001828908825125,
                -0.34002875541288097,
                -0.42470197022099904,
                -0.32795838039644054,
                -0.43241521941814914,
                -0.4613117934251275
            ],
            [
                0.03858681650497171,
                0.03279220266249384,
                -0.01337485006982193,
                -0.23187722875585706,
                -0.4141553790596145,
                -0.35128682846557213,
                -1.4965359779027587,
                1.2527565235929283,
                0.11818752145068245,
                0.12031075210366694,
                -0.06435375485081885,
                0.014536966751481662,
                -0.10001630228951293,
                -0.1943428803017135,
                0.3103449527835385,
                0.6986743306178023,
                0.07971270083406738,
                -0.04358158899839128,
                -0.035691499564923373,
                -0.08068272249082119,
                -0.08877808785312001,
                0.09438388792876748,
                0.2299935688638606,
                0.18770484109788754,
                0.0677284196981646,
                -0.03517082158323509,
                0.03399306851167352,
                -0.008337840115785195,
                -0.006233552784376002,
                0.01299686623321583,
                0.17693080067341732,
                -0.03156362745960826,
                0.038702549742165054,
                -0.0321318967689976,
                0.01889664283071282,
                0.07406472691230456,
                -0.010391925352851921,
                0.049970431796827045,
                0.14924917004681482,
                0.07709771905501304,
                0.0038090047533906714,
                0.050828164082008256,
                -0.017239999353937156,
                0.04063030591342101,
                0.010611375923514028,
                -0.025058885275145198,
                0.12081115619396347,
                0.012741887347379926,
                -0.11474426642506194,
                0.03669744140478894,
                0.0073012528392229,
                -0.03537082946017278,
                -0.010121208117610527,
                -0.02019392738701873,
                0.11771128440370017,
                0.013430619381498416,
                0.05727947995235157,
                0.024991621399396324,
                0.05366650468768929,
                0.12084452192633144,
                0.08610284499336128,
                0.04841199676274665,
                -0.059764588559143204,
                -0.07547393732365375
            ],
            [
                -0.2875184664092501,
                -0.40327404310500403,
                -0.31164632643418566,
                -0.47452666686579714,
                -0.3146139715401893,
                -0.057496181473421094,
                -0.11148686745560382,
                -0.2385745511574458,
                0.39294294956191783,
                -0.0708694894807826,
                -0.4828900067458733,
                -0.4993061282396306,
                -0.02779582711104183,
                -0.24207481365009167,
                -0.43646099761877843,
                -0.25169050139552596,
                -0.1356261385038865,
                -0.24802948134162425,
                -0.18833845657177256,
                -0.05791522018770639,
                -0.4078237236148555,
                -0.44836947132645794,
                -0.17469899910939213,
                -0.6532548886819175,
                -0.47815425211863,
                0.07212122849164751,
                -0.34587951797122035,
                -0.34018604009687853,
                -0.1743606430883975,
                -0.28390972595084174,
                -0.4645381151647161,
                0.5639895276770329,
                -0.5356413579146996,
                0.16243603391182324,
                -0.38139497460224586,
                -0.20751860532379518,
                0.040805548773316935,
                -0.4117190276456032,
                -0.3674470965861758,
                -0.3003754360444286,
                -0.09265453624662112,
                -0.11044784156866999,
                -0.2682528456682307,
                -0.33736817410699027,
                -0.1815674261501418,
                -0.25618204891960455,
                -2.0982235233753124,
                -0.4295135882502516,
                0.1141156667329059,
                -0.23038048882253553,
                -0.24740856298014324,
                -0.21272084202691793,
                -0.31640871762777834,
                -0.19421530088637745,
                -0.109501448451876,
                -0.1754591625830433,
                -0.14357025732806125,
                -0.04620243618849944,
                -0.1781217727142945,
                -0.3165988578512754,
                -0.22068710419112247,
                -0.23289427925181366,
                -0.0504023017428728,
                -0.1895793009348135
            ],
            [
                -0.053862640938442494,
                -0.015319085077922533,
                0.04494254007525058,
                -0.08487328206534292,
                -0.1214167375476409,
                -0.11356357267153788,
                0.20474859802834647,
                -0.031945182563340044,
                -0.44959235196024666,
                0.1790021041591502,
                0.11376711821549262,
                -0.033602673367633853,
                -0.11515873765331716,
                0.01786388336818101,
                0.08775576971817521,
                -0.10214823282102811,
                0.13478081576161305,
                -0.13837920392469572,
                2.3148752899166523,
                -0.13005225942517015,
                -0.2954354674003467,
                0.0015993053401820807,
                0.25126893185653154,
                0.2869003885180707,
                -0.15008030096968256,
                0.5331138117963584,
                -0.07287088348302259,
                0.40637267693227447,
                1.0268538363434203,
                -0.11934209789834543,
                -0.03677012584334409,
                -0.40687330914094355,
                0.5936001937247997,
                -0.023699860140575266,
                -0.2894080528038453,
                -0.013171682779945708,
                0.02982767475715873,
                0.189791220489437,
                -0.3756066037666869,
                -0.08741258579797723,
                0.5102924385747097,
                -0.2113135976034999,
                0.1526831680406951,
                -0.13422692336492834,
                -0.055050429229766384,
                0.16671084656462062,
                -0.1506411146999111,
                0.05401589341066376,
                0.02426908576352779,
                -0.03609968446543928,
                -0.15972078077715698,
                0.19869019899103554,
                0.026965843789952083,
                -0.07218569158597314,
                -0.028625485904687237,
                0.030614848795217725,
                -0.11526709583094037,
                0.034071395612589546,
                0.022104002048514714,
                0.041603412181092835,
                0.14499676324771033,
                0.148951967263737,
                -0.03094413301453335,
                -0.13386560573356024
            ],
            [
                -0.09140424596007776,
                0.013411530216278856,
                -0.08090979190267039,
                0.0177151794176846,
                0.09926151124944466,
                0.04354791828739135,
                0.14028371591737,
                0.18645549170894815,
                -0.1261750437925551,
                -0.14230002372733244,
                -0.07487840990260908,
                0.09148694782974556,
                0.043185034770667534,
                0.03366652316901361,
                0.2131143628560368,
                0.33682358304887633,
                -0.0014754372066134156,
                -0.055979792443503484,
                -0.027006544643292097,
                -0.025345539815210143,
                0.13286970279442678,
                0.06276330039129997,
                0.06989663719457385,
                0.25852337257356367,
                -0.14013378099294618,
                -0.13190266522544655,
                -0.08694858268388127,
                -0.14326534848567987,
                0.09635103227310553,
                0.09804871384952205,
                0.20750490103609953,
                0.1963810289822133,
                -0.16366596749103207,
                -0.3100007189763187,
                -0.03953397247368792,
                -0.0978804904053312,
                0.02777523732802428,
                0.05968297215497227,
                -0.0011329900898034814,
                0.06139452410572304,
                -0.21946281235892667,
                -0.35339023634406935,
                -0.27795092907144725,
                -0.11053150589697718,
                -0.03402494983848024,
                -0.05005798882799671,
                0.15283628752736186,
                0.05064481099628288,
                -0.43392727556494937,
                -0.3092013066024192,
                -0.21413096865142917,
                -0.11443395524361354,
                -0.3042440387287605,
                -0.3891567757066907,
                -0.7657588414041645,
                -0.704931474618241,
                -0.04681723862230307,
                0.01312957852763543,
                -0.19435363982978468,
                -0.17832242417038,
                -0.49286184437075414,
                -0.3174490452853416,
                -0.5161440956888207,
                -0.6559347622685303
            ],
            [
                0.2395070343422743,
                0.16707029235045087,
                0.3228269970260109,
                0.1273761949571561,
                0.556446774618423,
                0.32844709496131796,
                0.8999765893242795,
                0.0056812925755509785,
                0.20248693538503423,
                -0.021640602176165348,
                -0.04589521952997939,
                -0.012389017793456674,
                -0.37255497876030597,
                -0.6611799463482705,
                -0.8082777930271479,
                0.7887815856674231,
                0.4722797844099505,
                0.2089979568223055,
                0.21108446627280597,
                0.15676788351749682,
                0.28923671594715267,
                0.2617743430670369,
                0.14888637320937592,
                0.06682933862795033,
                0.43381468891996255,
                0.2841064580669047,
                0.10480735574359426,
                0.8365716519062328,
                0.07876388648544103,
                0.1892441395895248,
                0.20423319058640613,
                -0.12587105582275632,
                -0.36578451793185246,
                0.31200128521568266,
                0.24053017943669006,
                0.04193586784684332,
                0.31234867636301766,
                0.23310799007353836,
                0.02016221742381885,
                -0.011685993918363204,
                -0.24555690280231107,
                0.4625618570883147,
                0.15479730376876671,
                0.11404477664715046,
                0.09061878065196168,
                0.07377205619034276,
                0.1934353647012139,
                0.12805013841715057,
                0.08675262019587056,
                0.1689465996207409,
                0.14347434683842736,
                0.1638307097009779,
                0.03469642732068567,
                0.06912727431772075,
                0.3467525637689199,
                0.024323562717595042,
                0.257317284112243,
                0.12049733128030772,
                0.12387774431767638,
                0.4228279554297715,
                0.297808485675109,
                0.06161027242395308,
                0.03694295151700355,
                0.024818123810802794
            ],
            [
                0.06409247136960469,
                -0.012663334129575807,
                0.13631719448193913,
                0.053635177970656756,
                0.00035849398862576305,
                0.22713682884365136,
                1.1623552859253234,
                -1.998484908976003,
                0.11507680156291725,
                0.09961543493469104,
                -0.021711172793725083,
                0.018824641557599178,
                0.14221378087984649,
                0.2670467940030066,
                0.4381576204260739,
                -0.0685741881998566,
                -0.01190858372816769,
                -0.020239745037244912,
                0.08204785662940435,
                0.01786311249450381,
                0.16226886706654342,
                -0.04835749143083037,
                0.06908456176238391,
                -0.32838447980865243,
                0.047331060180048554,
                0.02307345959937092,
                0.020573321096883288,
                0.11324954285745382,
                -0.2389627250442135,
                -0.0256211580818197,
                0.30005996753860287,
                -0.49105232381559644,
                -0.02717023705755216,
                -0.07064418137060288,
                0.04266073989756694,
                -0.12446164511435902,
                -0.14487321722438715,
                -0.00674042433148232,
                0.24471734679417423,
                -0.2198578186593374,
                0.04065241888858944,
                -0.005547293821807035,
                -0.1802337830176326,
                0.03144059141827036,
                -0.03573634861444288,
                0.027134272099737712,
                0.13134202398104577,
                -0.19583887436538744,
                -0.0678023421010144,
                -0.07907274734731305,
                -0.07742295011359623,
                -0.0617014816839051,
                -0.06388655766892538,
                -0.11732882088657207,
                -0.026376463189407486,
                -0.10228579882885104,
                -0.028044861658197598,
                0.02665066159037888,
                -0.07548074225868559,
                0.05846668086009459,
                0.020251119808556425,
                -0.06383535557255646,
                -0.06612291785437253,
                -0.09172501950609356
            ],
            [
                -0.01174586942034655,
                -0.542500480325117,
                -1.0950719543629652,
                -0.9649994956815453,
                0.46552969340219985,
                0.5543182743094596,
                0.33940248297215886,
                0.1335597847769462,
                -0.5946320974864887,
                0.7222624763832792,
                0.4255485106182284,
                0.15818132726765669,
                -0.10777775414892046,
                0.20746822191066838,
                -0.17567860223074266,
                -0.07609754317202898,
                0.31361735610204544,
                -0.13107033564638929,
                0.08760309121708132,
                0.15570645816240758,
                0.19285301649715791,
                -0.2781130511103453,
                -0.18065911975899884,
                0.465375664175938,
                0.2694079015355247,
                -0.17860232530307887,
                -0.2528089263867323,
                -0.2315739115470914,
                -0.21076183775412768,
                0.11351050493505493,
                -0.04887386561443941,
                -0.2904935879837772,
                -0.3815706086336877,
                0.2457646600837488,
                -0.3457412770270686,
                -0.15791519276880084,
                -0.2308652063051349,
                0.031109481455947288,
                0.13057996140051142,
                -0.2983801918620654,
                0.4744352971630773,
                -0.21762163763295977,
                -0.23144616896803458,
                -0.09060774955484587,
                0.16467871537496112,
                -0.16915212875599475,
                -0.1512235804434491,
                -0.11652305969067586,
                0.09829517901002811,
                -0.0023356794048130063,
                -0.14716028143524446,
                -0.11345858404809127,
                -0.23159268755045956,
                -0.0240256510513858,
                -0.18111886985182457,
                -0.04557832797022994,
                0.2217803986275248,
                0.003900873828164405,
                -0.0856773820377873,
                -0.025572184083675297,
                -0.1142756423373289,
                -0.060886350856351794,
                -0.10715709355513742,
                -0.04610799710620132
            ],
            [
                -0.07873130524650097,
                -0.07629957015693696,
                -0.1572742513720143,
                -0.22095408519962714,
                -0.19533232701800488,
                -0.32429506329637076,
                -0.11590350445040211,
                -0.07036633491006884,
                -0.11136048674006165,
                -0.24590263367481557,
                -0.17869377535192685,
                -0.06494794267654268,
                -0.20060912672758133,
                -0.06375776326655494,
                -0.29610867751119135,
                -0.20918709922771778,
                -0.1834765186409765,
                -0.19831717522432238,
                -0.2093940722115133,
                -0.25663542916751575,
                0.05749926706498162,
                -0.06159134117782738,
                -0.1810922714756791,
                -0.3248357165574256,
                -0.2355999603963745,
                -0.22981125542132658,
                -0.20847432640152552,
                -0.17272986944979485,
                -0.16885350287326656,
                -0.025742038434782316,
                -0.010323868157619716,
                -0.32050165823791754,
                -0.09468677636969336,
                -0.18598456893686113,
                -0.08417087045129033,
                -0.2714577925103885,
                -0.28815359838517435,
                0.02140752293063823,
                -0.06574714607451704,
                -0.2701795380595225,
                -0.02659253076859463,
                -0.3245398379288853,
                -0.21012717792271665,
                -0.09077764405960728,
                -0.32750870037026664,
                -0.22404458498193258,
                -0.07428696789112191,
                -0.5485918732896793,
                0.1320497299466896,
                -0.06259005017807394,
                -0.21700257870523842,
                -0.26935263758196437,
                -0.29914098477242385,
                -0.23059474237217564,
                -0.8999295630753128,
                -0.004872036814219652,
                -0.03986592777073928,
                0.018796642077399357,
                -0.116809778809766,
                -0.03571572900883715,
                0.034917912718211055,
                -0.13493044632840406,
                1.2409771381977908,
                0.37261372039073204
            ],
            [
                0.05264929749982827,
                -0.14497850699985323,
                -0.08293785119758217,
                -0.07602297358480112,
                -0.2031528151845463,
                0.3586067349438617,
                -0.03305514708828027,
                2.8260430259892804,
                0.20794553260792956,
                -0.03954632827432055,
                -0.012709767928396946,
                -0.0001528674959047996,
                -0.17848521389097982,
                -0.22783094858858358,
                1.0630878730821987,
                -0.02954893357878123,
                -0.39623505599716435,
                -0.12518816372196254,
                0.028758752147509982,
                -0.0795924519541895,
                -0.10297205079092782,
                0.07645859114945752,
                -0.4148726744862177,
                0.05764202570833079,
                -0.20525994455221802,
                -0.009661740662277984,
                0.07853111148498432,
                0.10179809936208037,
                -0.13779766866811824,
                -0.016103734075595674,
                -0.11110758929463142,
                -0.06288987059086966,
                -0.011510983676790078,
                -0.0168519837809685,
                0.02368177904422089,
                -0.022005585136354578,
                -0.1459652006872255,
                -0.16251996566366023,
                0.026618852396017176,
                0.11469816696929243,
                0.13915970013176446,
                -0.16259929350399807,
                -0.12860088319521995,
                -0.117431466034681,
                -0.05220824530589021,
                -0.031312019591095995,
                0.007309794787542953,
                -0.05929746538344183,
                -0.2403508691090904,
                -0.007797972713944217,
                -0.11149726531499408,
                -0.27206816672562484,
                -0.21974880406480404,
                -0.015283198354879672,
                -0.09061218610239188,
                -0.15102720952192053,
                0.09258068608945107,
                0.01672528735955033,
                -0.01476044268242285,
                -0.0699935618450435,
                -0.05135018071310987,
                -0.16743294113547602,
                -0.09221139098519815,
                -0.07952981123642315
            ],
            [
                -0.1306200893007251,
                -0.17254553359031427,
                -0.042402767752443796,
                0.2355957604197645,
                0.45344332963171563,
                0.19489026846696614,
                0.19745584307882974,
                0.1544688645049278,
                1.306133219858606,
                2.3344188230321516,
                0.0393826109799403,
                0.008353873238553322,
                -0.088301967761271,
                -0.16546735117995454,
                0.29946659326462205,
                0.0903245183269369,
                -0.0190151016945002,
                0.00902766014164319,
                -0.1571840171295437,
                -0.5721149857927684,
                0.27538095185276523,
                0.32486336914818614,
                0.20349236369793833,
                0.13868999562097092,
                -0.3017418175487265,
                -0.006333916976512744,
                0.08741917287559182,
                0.3948815077982748,
                0.2858963993111116,
                0.06762870140344902,
                -0.09154628775543083,
                0.10548056388793775,
                0.3053995494768328,
                0.19321151586730687,
                0.4001544516806134,
                -0.10502263715310689,
                -0.0851923692767547,
                0.19384983444697013,
                0.031393089243161955,
                0.002964952813190289,
                -0.045179405043069006,
                -0.06494300192528606,
                -0.0944288983715368,
                0.07619347033129407,
                -0.10277166749782575,
                -0.0523952991993982,
                -0.005285991283010975,
                0.182912026680136,
                0.043379440118940744,
                0.009114374211543111,
                0.04935053195778583,
                0.030913429269665452,
                0.1774219472058917,
                0.061053317792712454,
                0.02499087819041446,
                -0.06755207766829219,
                0.12000063864866213,
                0.2078876163037472,
                0.11491267958102275,
                0.27731343601003,
                0.0007019650050567474,
                0.0756073351989744,
                0.009581787009630327,
                0.028461753042505616
            ],
            [
                1.5017916477676425,
                1.5632259758806217,
                1.5144268420861744,
                1.506471908531405,
                1.4743669495749507,
                1.5018646192702256,
                1.4465378533958282,
                1.4279754098981468,
                -0.024765084429896916,
                -0.022544425493136004,
                0.03730126487720578,
                -0.017169589769956757,
                0.04005153768389575,
                0.042756332981760146,
                0.014385704619169791,
                0.005323363302887089,
                0.049878431988869126,
                -0.03085005841669545,
                -0.003976105774942616,
                0.03225100770486262,
                0.011839558539742749,
                0.0580302562737669,
                0.013444034082677322,
                -0.030070656031130693,
                0.02454287128582984,
                -0.05015357605768888,
                0.042781809566576116,
                -0.007741630586353474,
                -0.024953103038453054,
                0.03140440578732889,
                -0.0079274725668652,
                -0.005305507616895329,
                -0.09679936045506175,
                -0.08032603003370982,
                -0.06569480230472222,
                -0.043656110180101966,
                0.0024917977366674966,
                -0.024112249301885266,
                -0.03058520845354068,
                -0.053392070322896806,
                -0.06891828266094999,
                -0.06236821322783147,
                0.017161751395587236,
                0.002712452448226543,
                0.009812156921068991,
                -0.040636969134466606,
                -0.03574612070294549,
                -0.005283606052518944,
                -0.033634480073598386,
                -0.04334232034958128,
                0.015242629209699715,
                -0.003505029158233801,
                -0.018503151983807115,
                -0.043161487746541126,
                -0.07194596883285226,
                -0.05591939974124201,
                0.009057814595212424,
                -0.07462905713217496,
                -0.050055240553635846,
                -0.02822814149122218,
                -0.058913573590637064,
                -0.03592135367321489,
                -0.04670138194354538,
                -0.04412705494525208
            ],
            [
                -0.018378950060831286,
                -0.08453451355568187,
                -0.02177472603942703,
                -0.0122912096340902,
                -0.10661428081337705,
                -0.07800207026225038,
                0.4911760800802722,
                1.1919604853935017,
                -0.06215298347620533,
                -0.04449822876995231,
                -0.06934312442657858,
                -0.07695037140250194,
                -0.023337178181716246,
                -0.07149525290338284,
                -0.24989400860653432,
                0.014350747340564289,
                -0.05097484892941147,
                -0.07347174947548706,
                0.010670259757850235,
                -0.056850531288483656,
                -0.0758928809851324,
                3.790177030612183,
                -0.03176260274124087,
                0.062363930952823915,
                0.003201142840463106,
                -0.01827363970342449,
                -0.06263156084444521,
                0.02176394592117471,
                0.20922377749637802,
                -0.0024882867133082217,
                -0.02406095993487551,
                -0.04413494972625446,
                -0.08287998460338161,
                -0.11792684111340092,
                -0.008644330840674012,
                0.1755590569884292,
                -0.023505914210818903,
                -0.01395323111668031,
                -0.057540430794362045,
                -0.05834100117966897,
                -0.1141111523791919,
                -0.019925814449610137,
                0.14670001507859926,
                -0.035429127543015616,
                -0.09522272795674605,
                -0.021352802398254822,
                -0.018455207584101373,
                -0.08406510528332543,
                -0.028319299893323477,
                0.11493049167121769,
                -0.07515909512241009,
                -0.07263830420850743,
                0.021496490295419047,
                -0.045815071851782276,
                -0.016541226083934216,
                -0.05947551389781789,
                -0.09316240040700183,
                -0.11076591139141541,
                -0.10596509093192291,
                -0.015352745414662512,
                -0.050272047483188816,
                -0.03611793705732643,
                -0.05578028433887478,
                -0.0710007332833808
            ],
            [
                -0.2631371164948492,
                -0.12951843714018624,
                -0.14633724403966258,
                -0.08571258518780024,
                0.14647476748054872,
                0.10738343556402793,
                0.11324674899724453,
                0.011001386009101862,
                1.1697817576293177,
                -0.20451532371110337,
                2.8399490366129383,
                -0.08957683937400969,
                -0.06300707059020089,
                -0.04979485836051927,
                0.030250680702832367,
                0.14486050500148964,
                -0.047782954795282495,
                0.18726241648302447,
                -0.32162340871140765,
                0.09264384941399766,
                -0.37497150871781165,
                -0.11612789243508115,
                0.11337363596621164,
                0.08855197503590825,
                -0.02028715415814525,
                0.14617502546855207,
                -0.07859388819492154,
                0.059345901419455144,
                0.018876506186860653,
                0.10145578749394032,
                0.1612493466755985,
                -0.14863441890822549,
                0.024916218708620402,
                -0.1494374909535489,
                0.06409135463773749,
                0.08253449601559758,
                0.011652665887603433,
                -0.0617459187108399,
                0.06098095348543281,
                -0.04138793019411482,
                -0.19802991636605766,
                -0.00371914603710295,
                -0.1340730299870053,
                -0.050202381912005455,
                -0.1186680329278366,
                -0.01238972169748323,
                -0.07802620046670364,
                -0.05048906051952089,
                -0.025002227660900975,
                -0.03969535594329749,
                -0.1656174336899443,
                -0.17088514123574403,
                0.08117450711792167,
                -0.20173252617730023,
                -0.15804410674241956,
                -0.1079990034501197,
                0.049481864495996536,
                -0.1648838691229644,
                -0.01921571352659045,
                0.0741324806782859,
                -0.04198108095145914,
                -0.025813408478543805,
                -0.1678679028532052,
                0.09685760935356423
            ],
            [
                -0.012862083379211199,
                -0.0226045201368564,
                0.24961826058043804,
                0.4407843073152457,
                0.2776792747802977,
                0.03331482464740008,
                0.017907309973037914,
                -0.1950225508348516,
                -0.7067271390240336,
                0.5700644898693102,
                0.13187529477013266,
                -0.40756943056791084,
                -0.2665404905971606,
                0.29176366192193537,
                0.4481313540103815,
                0.015289911961804653,
                0.6932192575029004,
                -0.2801081716326973,
                -0.3859787151493463,
                -0.1244418675794664,
                0.14491227197924436,
                -0.029105424840531104,
                0.020716511349716735,
                -0.11740511263102414,
                -0.10715650176275025,
                0.5066800245844048,
                0.10998423912185609,
                0.09119131410380692,
                0.008329292941264154,
                0.0317253127144696,
                -0.8870999945711457,
                0.4192500517920432,
                0.1391062133712958,
                -0.9731778033201592,
                -0.09336735145607222,
                0.23767582514225216,
                0.5319827565368351,
                -0.48320096689881215,
                -0.39650835209910495,
                0.8316388017540084,
                0.19384848405731028,
                -0.3067152584669083,
                -0.11374474330216558,
                0.01263813237338345,
                -0.3435405492298091,
                -0.12079582748379704,
                0.41389017538816614,
                -0.9606377291166779,
                0.19678220290895423,
                0.13176486371499369,
                -0.15555974482471127,
                0.0634697558608621,
                -0.294165289678095,
                0.1361203093301545,
                -0.15200104431735825,
                -0.0046712158646479,
                -0.15424438011354558,
                -0.11704675290940883,
                -0.23753570685670589,
                -0.14850913235497082,
                0.18820750949292006,
                -0.005983709483575086,
                0.1874395641382216,
                -0.03388141404229246
            ],
            [
                0.14723104003464388,
                0.24129718245329013,
                0.19744906746049903,
                0.05794531021140037,
                0.1887962122778884,
                0.12029115449505172,
                0.4003434805023571,
                0.24894684195571223,
                -0.07248143720518803,
                0.1597335676098054,
                0.24451020960201808,
                0.14511567914714044,
                0.1889159502673877,
                0.3453750532392506,
                0.2832222649227821,
                0.3150280011612734,
                0.10243147845905187,
                0.30779329439919173,
                0.06818203461941366,
                0.34534770411696614,
                0.3557070247428397,
                0.30978419516220745,
                0.3245013360670499,
                0.3276221786003094,
                0.008900194479736025,
                0.15600414899754467,
                0.19532321005368372,
                0.23056181248563015,
                0.2178704756622591,
                0.3882528811665248,
                0.33822941983626376,
                0.3082698938493495,
                0.14981776551107537,
                0.03676000767698797,
                0.2362141090877624,
                0.3756541158140108,
                0.29662122165984134,
                0.18452262232450384,
                0.04880681943656801,
                0.056481238552182546,
                0.5170662217108255,
                0.47331289744192323,
                0.6506648774052803,
                0.2922068524144994,
                0.049196820165485336,
                -0.020708713836771316,
                -0.07415109152059383,
                -0.24241864177447348,
                0.7238660185870952,
                0.9480233876967661,
                0.7492084025277275,
                0.3749774773490189,
                -0.3681060036286766,
                -0.3525400373009973,
                -0.2773899413197202,
                -0.33791430374481063,
                -0.769575669218248,
                1.3100813078603686,
                1.3369104919700776,
                0.4279416683433676,
                -0.5321599287736358,
                -0.3620609364902797,
                -0.39226981959107776,
                -0.17753497482647299
            ],
            [
                0.030733818707064983,
                -0.07616806108083836,
                0.03154127380404327,
                -0.09919023204031352,
                0.16583645421147813,
                0.13402129491939488,
                0.11057829462263398,
                -0.3728065473967035,
                0.17542621639024955,
                0.09798941783250623,
                0.15750047846907783,
                0.08785901567715221,
                0.09128796732543805,
                0.07356138025544018,
                1.2954875339766039,
                -1.5984048230269026,
                0.035300149528111904,
                -0.10321010149113213,
                -0.0466455693102513,
                -0.03988344881675193,
                0.1162564946630552,
                0.25407040242078816,
                -0.1563447553151047,
                -0.7547242300114139,
                0.09731733320687298,
                0.05159096689546812,
                -0.15235513241690946,
                0.1422670830592209,
                0.47993604479506186,
                -0.2470214473967021,
                0.021600218421843544,
                -0.5181369363525957,
                -0.08342838326278655,
                -0.05394938648064472,
                0.027153284296432052,
                0.3868449882034351,
                -0.33495098079073404,
                -0.0544722916913934,
                0.16977647308127655,
                -0.4412687905475383,
                -0.11215995658936212,
                -0.01920776952756486,
                0.3563209116937277,
                -0.38689131284615685,
                -0.11032742699642159,
                -0.03941852421000891,
                0.0009598716547588405,
                -0.3552247893543025,
                -0.0895274629017888,
                0.03207749374791057,
                -0.11112157719879277,
                -0.12647891544654588,
                -0.04398166481727626,
                -0.055367756087586914,
                -0.10997994849934453,
                -0.049291855389479305,
                -0.11005370563078473,
                -0.09967482750962148,
                -0.1320247872698441,
                0.11504201507448278,
                0.08432633420919822,
                0.03424294639277827,
                -0.058410736039166834,
                -0.10014951139869396
            ],
            [
                0.02657861283033006,
                0.11777860494210171,
                0.10355229615653645,
                0.03892234021210024,
                0.08316468345781107,
                0.12660107691182207,
                0.14908086928125036,
                0.1454184575118314,
                0.12022728566960336,
                -0.009595932767369923,
                0.021965116452431644,
                0.05053855013855886,
                0.17042121486934536,
                0.16180471752995398,
                0.0941013083247655,
                0.20685170375531492,
                0.05232961244090513,
                0.03498208620165742,
                0.13488428484047132,
                -0.021073974470736258,
                0.11225978049110184,
                0.09744965239987788,
                0.16647087786088627,
                0.16207991685131198,
                0.13651173428782434,
                0.05179825237474886,
                -0.01185600878168955,
                -0.06272335766404394,
                0.12882956147031532,
                -0.010131147157718214,
                0.027623345494126303,
                0.13756290602387625,
                0.06446633445550563,
                -0.0630593337877581,
                0.008376907974489943,
                0.03495772920631114,
                0.13006739508381154,
                0.06102642155798969,
                0.015021739688299805,
                0.11251120857320156,
                0.026423892671135537,
                0.047313434683141684,
                -0.01119663603375129,
                -0.04954323616193651,
                0.20282470756559162,
                0.024983340824346455,
                0.13708362158303647,
                0.017140475793998935,
                0.08800979073001577,
                0.1339749126850169,
                0.21527966349402325,
                0.2637443343531202,
                -3.75290031330363,
                0.11835091817021086,
                -0.05155058059286417,
                -0.2210059772619332,
                0.12038504573820766,
                0.026940827434335398,
                0.18906851361431654,
                0.2057206438294107,
                0.23044928257264277,
                0.11624126849229871,
                -0.08979323749170393,
                -0.3570992722487697
            ],
            [
                -0.12775709428905344,
                -0.13143589512415954,
                -0.16164620765801524,
                -0.16285947969771933,
                -0.13115090924057515,
                -0.17627899524496482,
                -0.20158404889349696,
                0.47743919515384703,
                0.02244217782747394,
                -0.0411193913724433,
                -0.07548684889026445,
                -0.11774404856582293,
                3.6782605766873906,
                -0.09713091950702159,
                0.028564073930969797,
                0.13188937077569837,
                -0.09182988627822762,
                -0.11638638808877831,
                -0.1174380213122223,
                -0.03026603428333178,
                -0.055773886080646366,
                -0.12148103566083734,
                -0.09489049312598166,
                1.500722406695753,
                -0.13971036067121123,
                -0.021726102629849715,
                -0.1393743118660349,
                -0.15198179441536452,
                -0.22502723176904946,
                -0.08199756874361648,
                -0.08333640703843594,
                -0.09216081755136889,
                -0.01707061041578258,
                -0.16319347404083104,
                -0.05424904581749937,
                -0.08734328141066867,
                0.0015463477967511067,
                -0.030768319193718866,
                -0.05548605159076904,
                -0.09921835646127322,
                -0.15001008914053032,
                -0.05316608260833586,
                -0.03780198083884107,
                -0.028046180536985876,
                -0.15030723277299304,
                -0.04525153266370798,
                -0.08221656557456747,
                -0.09923387875791394,
                -0.1144115906277557,
                -0.06505030900160176,
                -0.07983000010346598,
                0.019041248418264732,
                -0.09386994788854638,
                -0.06909861489094386,
                -0.06817736829984343,
                -0.17802402471976445,
                -0.07453422957073422,
                -0.12993969421381213,
                -0.055860598136055525,
                -0.1110035846254406,
                -0.12038105344576977,
                -0.09062720169589718,
                -0.09837640919895883,
                -0.09295802944119211
            ],
            [
                2.902885664757716,
                -0.154925867569129,
                0.024942230783162034,
                0.24042680974616612,
                0.08345863926871999,
                0.06136603419339533,
                -0.07245577831589568,
                0.21345207249233714,
                -0.385794341438128,
                0.3797157066468046,
                -0.07005860049937328,
                -0.16355687017454604,
                -0.017383155732630287,
                -0.045068818240645674,
                -0.037159250863834606,
                0.1745810987939817,
                -0.22945286004550097,
                0.5683606998830613,
                0.03384910148498089,
                -0.10928629807960698,
                -0.1970461742049779,
                -0.02307303115379895,
                0.10991271799735704,
                -0.5636255869876637,
                0.3668598499440699,
                -0.09418098337885127,
                0.2750156727881418,
                -0.14841337081133735,
                0.4057823238479415,
                0.019034059606788143,
                -0.045069200521228626,
                -0.05370184639679707,
                -0.40412596449853966,
                0.17359412258291848,
                0.13390208921481225,
                0.06842256885116023,
                -0.22873689596819752,
                0.011809229525641302,
                -0.1436194407614149,
                0.13169873248986802,
                0.008482205871319067,
                -0.20890908573080968,
                -0.13867678471108108,
                -0.11945509162273862,
                0.0013446196563048822,
                -0.08884034974626409,
                -0.09824585061342678,
                0.05484176110691553,
                0.016124545516112126,
                -0.08879059231513114,
                -0.03251761104528074,
                -0.2163499095408475,
                -0.07717386677346214,
                -0.054091610070243906,
                0.03970586199176122,
                -0.09714235257751593,
                0.1678866509242456,
                0.23494242440359694,
                0.030883933086037266,
                -0.015020014407908937,
                -0.13036233274123135,
                -0.1638924388898704,
                -0.04629027700002877,
                -0.16846926006666624
            ],
            [
                0.4545246830180042,
                0.2837896075775337,
                -0.01362837102006122,
                0.09955032433704142,
                -0.3648832733221421,
                -0.14313239532002522,
                -0.05075380600300481,
                -0.3707749244631546,
                0.4091720576501722,
                0.3027178671741038,
                0.12470042100480212,
                0.014639679797413138,
                -0.5405249068516652,
                -0.4870841217015066,
                -0.249312560619678,
                -0.15158961609715357,
                0.4665444128177219,
                0.17966073712403627,
                -0.002969651168263831,
                -0.33697984878646087,
                -0.5961734899921362,
                -0.6498387868552628,
                -0.4729239802416464,
                -0.32086801891712075,
                0.3437232878440363,
                0.21645756211336012,
                -0.1308949772084435,
                -0.4977435621383616,
                -0.8787361605181492,
                -0.7029397047242459,
                -0.4276023331665694,
                -0.3284067669897485,
                0.3708224472474485,
                0.1017598127597939,
                -0.30961408110292643,
                -0.5038091925434649,
                -0.7155145922225289,
                -0.8529239582616744,
                -0.3283705464188068,
                -0.3898297967480342,
                0.1072445306516053,
                -0.21655390499168428,
                -0.22665672038625145,
                -0.3251938326457165,
                -0.3314263612813036,
                -0.3291356132394877,
                -0.17560715627432105,
                -0.11581066940849016,
                0.029067027200832738,
                -0.09785491432063563,
                -0.3632213309050201,
                -0.2525343702752001,
                -0.2970330238441849,
                -0.2473494137674811,
                -0.2021226070730528,
                -0.2872547413251817,
                -0.25708186069881384,
                -0.35392505932224105,
                -0.27602430718294163,
                -0.30851538721407473,
                -0.1697386882004305,
                -0.2215259595139983,
                -0.17587731588633815,
                -0.2679883831224061
            ],
            [
                -0.1681936854995164,
                -0.24001800348145708,
                -0.14698658683507834,
                -0.13871401969936648,
                -0.17885290039933266,
                -0.29799986389818545,
                -0.21519540337866955,
                -0.21057829630248467,
                -0.30713286797694866,
                -0.2711552726531245,
                -0.27665931880613287,
                -0.20989967838720394,
                -0.21477071313535526,
                -0.13808401306691268,
                -0.30912913180213947,
                -0.3478885335348631,
                -0.1735806852576622,
                -0.21640210888408734,
                -0.28757679433012256,
                -0.2797152609081611,
                -0.1491869949334905,
                -0.19323641051375084,
                -0.0487949443108216,
                -0.28229139405643955,
                -0.21308246529972458,
                -0.2739722406371559,
                -0.25756103042581746,
                -0.134717594026043,
                -0.21481617302701522,
                -0.258081853336835,
                -0.22427146401909337,
                -0.3168227021440125,
                -0.30191676142462676,
                -0.2772778223330288,
                -0.27453075841963376,
                -0.315597368785105,
                -0.331239723800525,
                -0.34536960080655155,
                -0.306803872778756,
                -0.31069959517552265,
                -0.17177746023186213,
                -0.21593491192907702,
                -0.2971058381906226,
                -0.4158230409751224,
                -0.4328285235397486,
                -0.40147495134600697,
                -0.5078130411508025,
                -0.39361334342026255,
                -0.28079283624029333,
                -0.22220883510779985,
                -0.26537662153467645,
                -0.3422327988754724,
                -0.3661447085475451,
                -0.44848109285909205,
                -0.5326127004594164,
                -0.5677311501964705,
                -0.15592701555416733,
                -0.17774569375412422,
                -0.21551031418345046,
                -0.23148872105102974,
                -0.1703677465356073,
                -0.24341251603152836,
                -0.5218456566534353,
                -0.3079098364173811
            ],
            [
                0.04550967620779279,
                -0.06512789398162931,
                -0.03787699998855846,
                -0.05663543994465106,
                -0.01142913077676844,
                -0.05264944147591331,
                0.006382921362863635,
                0.13208377509949612,
                -0.126360226637473,
                -0.0811167320942677,
                -0.04316998232865237,
                -0.08915144748313934,
                -0.12937533929267125,
                -0.02706969197522538,
                -0.09168038124430372,
                0.05052953187204017,
                -0.06616820942556119,
                -0.07434283273696356,
                -0.04894483593528266,
                -0.06251612950239163,
                -0.055411550181621,
                -0.04009061953434634,
                -0.004729310291985456,
                0.07713206510109179,
                -0.24747577283471756,
                -0.14385949251501579,
                -0.1653048578373631,
                -0.09753924656492807,
                -0.09596120302191063,
                -0.07129431299254038,
                0.08174206416530884,
                0.1382337622352028,
                -0.16304445792430242,
                -0.13295202345753043,
                -0.1796773552598884,
                0.011047964198342879,
                0.012000570425298826,
                -0.02314881852214201,
                0.28438007772367235,
                0.4284363292153566,
                -0.053448328595171554,
                -0.1497701469289919,
                -0.19591400936807069,
                -0.06852985085368167,
                0.06991650271906369,
                0.04745111466025039,
                0.21972913920011605,
                0.45065729281623246,
                -0.12532555597358833,
                -0.08017984377530309,
                -0.17409640221111503,
                -0.07222190382587082,
                -0.04910781888142669,
                0.14628394760327354,
                0.6276897881712942,
                0.5217056292213371,
                -0.10352291742799825,
                -0.12961176831969576,
                -0.036477489395878235,
                -0.21151732077793345,
                -0.19949930381899048,
                -0.1267717582683705,
                -0.9599324767399791,
                -1.8127651159719023
            ],
            [
                -0.21110146018108533,
                2.526575963186528,
                0.045583077076574975,
                -0.22939963211877878,
                0.02848908708930009,
                0.031756179722621194,
                0.022995114398707755,
                -0.13828107837502077,
                -0.005011182859188728,
                -0.11383086581177568,
                0.04897688900869957,
                0.0071588238554396045,
                -0.16188632498316996,
                0.3717368327106273,
                0.008968299704690666,
                0.043468703975745204,
                0.17447155729015743,
                -0.15638811583811646,
                0.06262710633474823,
                -0.03874142628172403,
                -0.09349119697806245,
                1.4047878055972494,
                -0.07354155042182,
                -0.008948609909225906,
                0.20130347236820675,
                0.04307083072991668,
                -0.16454240754510602,
                -0.057221219879440025,
                -0.06822189888620937,
                0.2492639031922879,
                -0.06935034658783895,
                0.024236842305901497,
                -0.07760227431439487,
                -0.1558308415847269,
                -0.10416491862922432,
                -0.14350963317285412,
                0.01993282376815516,
                -0.10086066717196925,
                -0.03417098835860177,
                0.24984526583601038,
                -0.025553339389423446,
                -0.09903051134706142,
                -0.15252622816465533,
                -0.10896984016526441,
                -0.033552837894561136,
                -0.07969916446290284,
                0.01705384708314699,
                0.04670887123562142,
                -0.18536801183839982,
                -0.09188761857445228,
                -0.029602409496951185,
                -0.15063234128662892,
                -0.12115947901926855,
                -0.20187160665316495,
                -0.03048270171372078,
                -0.07368596209984526,
                0.03059213297576149,
                0.0346702906650522,
                0.04842904552873258,
                -0.06731347440495367,
                -0.039155189724878574,
                -0.028506081240109102,
                -0.03425410135958462,
                -0.02052607022382517
            ],
            [
                0.246102602090692,
                0.42933707511677477,
                0.23499738649069368,
                0.3541317326897762,
                0.16072620535301832,
                0.2540090158967349,
                0.30466156026266517,
                0.3356488931471665,
                0.21980723504551367,
                0.3616929021375863,
                0.3973729870236304,
                0.3676443258379882,
                0.41544612576871326,
                0.28555862641077434,
                0.3059035362403653,
                0.25809878041245077,
                -0.13010492471701532,
                0.40653025472731613,
                0.4126221217176817,
                0.47686440391815427,
                0.4137074942652907,
                0.3447039624787798,
                0.42050029592681215,
                0.13038466736191326,
                0.5538306488374757,
                -0.046845278637952924,
                0.2600920576896782,
                0.07020725979515917,
                0.39585654994830893,
                0.23009516118288745,
                0.22623022527826417,
                0.49727210118264165,
                0.5199935921345613,
                0.14031709389351177,
                0.15614693207990535,
                0.39458709189260327,
                0.23500806981864428,
                -1.2994808793959958,
                0.4114123005065651,
                0.42151860883986536,
                0.2136836572979084,
                0.8860909631501263,
                -0.007757310328018368,
                0.5462906562460746,
                0.12260164546910597,
                0.35176528651789385,
                0.24312018518563175,
                0.08227019812930862,
                0.45517319476381407,
                0.6251194079893276,
                0.448184185410904,
                0.16102274500315225,
                0.5681863905449264,
                0.3964440158279132,
                0.3409767133029557,
                -0.12861056674672247,
                0.6135881243667785,
                0.05773838264250736,
                0.2507074474784257,
                0.5416442570283008,
                0.27031197329777973,
                0.5661367006241763,
                0.10223741225714325,
                0.19026474654068312
            ],
            [
                0.1237094405923966,
                0.04062137737927329,
                0.1631583345739625,
                0.018411188673876974,
                0.04642537594964315,
                0.07898809316233207,
                0.06801323146081971,
                0.27769504280807655,
                0.20111622122103345,
                0.02767095146046097,
                -0.038425667717325876,
                0.04185032687788181,
                0.05821291151700412,
                0.13151165175852148,
                -0.005511449069446036,
                0.16534023233769243,
                -0.046741633865014426,
                -0.058983923021807154,
                0.051249930197444185,
                0.051566826388530135,
                0.15317773703649348,
                0.09552982026650213,
                0.04472934701746376,
                0.11705855632089114,
                0.02204863051187185,
                -0.05378536495578737,
                -0.03570359162106505,
                0.04533308903634476,
                0.08092259492897133,
                -0.0023970208774267243,
                0.022290141096601167,
                0.23012870900286114,
                -0.2366507787118537,
                -0.05723181485658331,
                -0.12255313027761819,
                -0.0876195804698724,
                -0.03375457442448446,
                -0.01881762095957349,
                0.10828358249100481,
                0.5437356127001775,
                -0.0003255386664965486,
                -0.028049951651766936,
                -0.07682167525660834,
                -0.17928814491729614,
                -0.14355685100035892,
                0.12798468949077482,
                0.5455670536231003,
                0.8385749897989351,
                -0.06069468784992198,
                0.008248873986313203,
                -0.051189257795931996,
                -0.19097465713454795,
                -0.2788780843908186,
                -0.05637068004183827,
                1.0243134764817767,
                1.0326512951765583,
                -0.2693098262486744,
                -0.20008446191825355,
                -0.14365407643710565,
                -0.17792806761598354,
                -0.4236286400692577,
                0.12810954114248985,
                1.2294269681774657,
                1.146290491094378
            ],
            [
                0.08718850759790546,
                0.17596072364770413,
                0.22195120902544754,
                0.23557918613106363,
                0.5941229684728961,
                0.8152977128561287,
                1.0500770351212492,
                0.6942249191262194,
                0.2100821908679098,
                0.16047019457054992,
                0.04905415308488711,
                -0.02433237185459644,
                -0.06055346446214034,
                -0.39321474758466873,
                0.2704919974150473,
                0.027010241511806685,
                0.0017121406818366538,
                0.09967056525303702,
                -0.0010565584319153628,
                0.05748578551516133,
                -0.15010114088036544,
                -0.2469612121000658,
                -0.15719193861783384,
                -0.038824991932553544,
                0.13559851456404065,
                0.18994752457235953,
                0.28507492429000797,
                0.059903579710134075,
                0.10641358751102122,
                0.16626332371985486,
                0.15171075223262817,
                -0.03644882391372513,
                0.12347395990334745,
                0.1979246146251927,
                0.05869685391118777,
                0.030842159305556713,
                0.09185013520092711,
                0.252343904776381,
                0.20658035355712837,
                0.06843661692728703,
                0.18585297324511718,
                0.10883224874196562,
                0.07875472036693708,
                0.1582906733459473,
                0.11189544335717803,
                0.15330546545483026,
                0.020201608183807243,
                -0.003939962606409492,
                0.16245600360062912,
                0.14115524188111891,
                0.09962191803930394,
                0.2698337468280733,
                0.1651645607484178,
                0.19938495997175046,
                0.06410948755797685,
                0.08290242593457343,
                0.12546535815092297,
                0.07102884545736309,
                0.11579868697866919,
                0.11592876067215536,
                0.13845752166002026,
                0.17084684423491064,
                0.10377898645228407,
                0.1331831297022097
            ],
            [
                0.22862621858858287,
                -0.04896022382027192,
                -0.07787969584020382,
                -0.1175859404788008,
                -0.05565149261055192,
                -0.08829728553252308,
                -0.1774228775249689,
                -0.10686297811027629,
                0.10462863243969868,
                -0.07238938834807823,
                0.07543969923996492,
                0.116579009812668,
                -0.036904702863388775,
                -0.15126134983067172,
                0.06606920398280745,
                -0.0612098129786454,
                -0.09484431203307632,
                0.1257955591856372,
                0.10116539128578324,
                -0.07077209811194936,
                0.07493179495225546,
                -0.09793609575102126,
                0.035454037084762205,
                0.009810411413309699,
                0.15426663832346507,
                -0.1147602465194725,
                -0.09411941453144057,
                -0.1348189574087038,
                0.03683676571042532,
                -0.05910478766877191,
                0.1840227689788078,
                0.16697725366957222,
                0.06929628595906596,
                -0.18486399198464673,
                -0.2274754655294626,
                0.3194410941504851,
                0.18403273150018026,
                -0.4054163275859087,
                0.4235515185245352,
                0.13351458015645512,
                0.05936522320047853,
                0.03501720859203567,
                -0.009073538511913204,
                -0.6541507631029031,
                0.34412853537107274,
                0.15832418341813284,
                0.22467984346741945,
                -0.5070276818460342,
                -0.11759609461455081,
                0.07975223433504608,
                -0.04054929273280271,
                0.3414593484182857,
                0.05945333780767257,
                -0.7130137691268515,
                -0.9743638640079282,
                1.0037261302455867,
                -0.14663205723058492,
                0.0013839249486573852,
                -0.24647805544649815,
                -0.4808148358186031,
                -0.9487809506537247,
                0.9961133835239342,
                -0.7414858317222952,
                -0.5747664761579387
            ],
            [
                -0.01479007648818723,
                -0.12514348200907907,
                0.3004441232248358,
                0.04564969387095643,
                0.1903650805843425,
                0.14967018845025307,
                0.11010645635287393,
                0.11597448242040584,
                0.2411418781844814,
                -0.01238662410587852,
                0.15077438622645517,
                0.15028016986581,
                0.10949898814879687,
                0.09673044596953964,
                -0.0588580855544499,
                -0.03557600270289111,
                -0.18498100806361423,
                0.2519899603936349,
                0.12485203905254101,
                0.04213956482570011,
                0.051389674702760665,
                0.17705627240646377,
                -0.006849902374111155,
                0.0866528974051007,
                0.11941792121059501,
                0.11980611281507109,
                0.3800229601150994,
                0.1073017765321029,
                0.2916210910050975,
                0.18248602131572425,
                0.38106492449688933,
                0.2729646478382846,
                -0.0202198075395728,
                0.17390383466217846,
                -0.9838472834511827,
                0.4696999603940416,
                -0.14354429427497511,
                0.22391461234767268,
                -0.10477365124554046,
                0.6324323057394974,
                1.3015633431906446,
                0.031734770585184216,
                -0.12381083441172952,
                0.11115376370436544,
                0.11139252065071764,
                -0.033551493071278235,
                0.016227183325131463,
                -0.6069516231669904,
                0.3968107290355893,
                0.1408169267072252,
                0.31844664384128224,
                0.22723903629235753,
                0.10710335744218571,
                -0.492289779018713,
                0.7433384718781318,
                -0.36634777602186996,
                -0.24605171129454395,
                0.04588817402179976,
                0.026188755057821353,
                -0.8618402184710593,
                -1.0591040843335637,
                0.06807440732365765,
                0.2287395521242551,
                0.05506475683778575
            ],
            [
                0.08269578993960763,
                0.2151809640490032,
                0.21956142676626314,
                0.02912242921190066,
                0.2855387305941517,
                -1.8550764432343734,
                1.2576856041163733,
                0.5184314640874218,
                0.3768712399335006,
                0.20441218370529435,
                0.15517916998428263,
                0.08235933402345837,
                -0.06230074907814204,
                -0.13407366277239194,
                0.629131785539444,
                0.4955487283972218,
                0.14890418639743036,
                0.13427128227215843,
                0.11372137109466753,
                -0.008107788608280929,
                -0.0990430731739707,
                -0.31768871291480566,
                -0.030751930414135337,
                0.1559646388784302,
                0.11726323397751529,
                0.21339731079697566,
                -0.08454526489753132,
                0.17144189056549136,
                0.022968933759950013,
                -0.037180373667832244,
                0.04947380795851166,
                0.035915731123583594,
                0.18012189116645225,
                -0.10907887506104297,
                0.09477735326962412,
                0.07156006967154888,
                0.13204780639587424,
                0.014747385155756855,
                0.11194744926142419,
                0.06430626422302155,
                -0.1694149157167401,
                -0.08864673532905637,
                0.07819963799144548,
                -0.03381982471624682,
                0.0886103247585664,
                0.07721965555285547,
                0.019335300828374473,
                -0.03708807984055903,
                -0.003175323909189204,
                -0.03349510572707406,
                0.062187935312243564,
                0.10594134669874301,
                0.0441951124966617,
                -0.004355076471309821,
                -0.011683927835501007,
                0.004937018238453176,
                0.06125028866371143,
                0.08492105312040922,
                0.04968950318984156,
                0.09127017827222712,
                0.04741636984858458,
                0.05623393340563806,
                -0.053934988257510995,
                0.013020276865890553
            ],
            [
                -0.4738049771500648,
                -0.27920442189216527,
                -0.18028382950084604,
                0.07827486943450548,
                0.06430854341499402,
                1.4411137433119767,
                -0.02509726999470507,
                -0.2943879760077157,
                -0.1752678199626059,
                -0.2329939372527393,
                -0.241350734482725,
                0.0012560897093729386,
                0.25900197174025386,
                1.2680225349269547,
                -0.27411051415522963,
                -0.6409889728081803,
                -0.41234292635886005,
                -0.429291084464657,
                -0.3113336182406994,
                0.05255698183662596,
                0.24809494661572354,
                1.0147395591923283,
                0.10346632657167192,
                -0.07066191987849318,
                -0.26345429772508155,
                -0.27545232236113076,
                -0.18571550402496081,
                -0.38170885009651717,
                0.006677127652251132,
                0.7361693415631924,
                0.05014821750660971,
                -0.181218701711999,
                -0.2250680686782627,
                -0.19460318062240806,
                -0.2786080346330741,
                -0.20938221253187211,
                -0.05537812118999058,
                -0.15597559209475634,
                -0.04753234259073204,
                -0.21452737929371923,
                -0.2130023867102191,
                -0.14798857565447365,
                -0.18062602332759348,
                -0.15937734141527038,
                -0.1788030264972384,
                -0.1673242544344465,
                -0.1939963553399442,
                -0.20370519794653624,
                -0.38329678311182497,
                -0.22284571528292227,
                -0.1730933847975458,
                -0.30852819010672133,
                -0.25716681366474303,
                -0.2920897227898881,
                -0.20616447049600709,
                -0.20630556085500146,
                -0.33843606530957154,
                -0.20768453950789037,
                -0.2527066246222228,
                -0.2877810200777339,
                -0.2798570484813972,
                -0.3358974234034597,
                -0.09489037977198629,
                -0.2749790819156295
            ],
            [
                -0.05245478105493927,
                -0.06422039879176974,
                0.09431305214020307,
                0.0885566233851868,
                0.10592440645124977,
                0.07897997221165007,
                0.1740625346217375,
                0.036040071396888286,
                0.20896543241556922,
                0.07118565296667567,
                0.026842592155432377,
                0.10114025121065538,
                0.17202642877649496,
                0.10805664070162398,
                0.041966178200942506,
                0.07350902564131691,
                -0.20888083528355864,
                0.2034039526994352,
                0.028344145225089296,
                0.12504867960460805,
                0.12948285105651872,
                0.14205577880072334,
                0.10860412732141428,
                0.014874891614192122,
                0.0751509384794309,
                -0.1517549426587969,
                -0.009435913257430175,
                0.07162918717479136,
                0.0784923563998251,
                -0.08716790679379102,
                -0.04583731855719396,
                0.3588229207887656,
                0.34936569203569917,
                -0.1698612342064346,
                -0.11571547417962608,
                0.09755232866320843,
                -0.10996960694259755,
                -0.11918898232960842,
                0.07190015572832166,
                0.00807008908520481,
                0.2870813664193909,
                -0.10748644345050735,
                -0.10746972747302479,
                0.032511512843894724,
                0.2943668242693371,
                -0.031604211671904636,
                0.14795353387921478,
                -0.09322590071375089,
                0.15702819490481162,
                -0.4973935662772979,
                -0.18746804282906646,
                0.17018027619981568,
                -0.09550474264705437,
                0.11412358566280094,
                0.08370574602939106,
                -0.01010593382032769,
                -2.8052830818331893,
                0.3725318862251807,
                0.33105167366218574,
                0.1531457361590513,
                0.12024030802274213,
                -0.37256901348479915,
                -0.1895098156091542,
                0.01643879847532787
            ],
            [
                -0.0988772170341321,
                -0.09487237137274789,
                -0.069945286315509,
                -0.041454479847445214,
                -0.20073417480128064,
                0.0832472612763397,
                -0.348995976565415,
                0.9483983561262332,
                0.018412132587950852,
                -0.04714387597751794,
                0.005769714802646365,
                -0.11542918737151757,
                0.03238814163558874,
                0.006819623813268474,
                -1.2719282948223969,
                1.604886843611455,
                -0.04372775927045362,
                -0.12204331081229712,
                -0.1674780337325785,
                0.05427733232401923,
                0.01186974958805512,
                0.003918110901846454,
                0.40079882911466874,
                0.293871921760734,
                0.0002737512562493655,
                -0.0017109940329131947,
                -0.12512495404043056,
                -0.0894581630161285,
                -0.05284247563001363,
                -0.06303871555889635,
                -0.16686932893649747,
                0.21695803675283204,
                -0.021608050718286184,
                -0.1688935378142259,
                0.14634804970599816,
                0.041603563548405754,
                -0.1378726723749433,
                -0.32921750229317376,
                -0.04412786523739558,
                0.13766734501550076,
                -0.11726001418871565,
                -0.15061851363977466,
                -0.04760545737910312,
                -0.2375074400812001,
                -0.12308985971278834,
                -0.11984389169082145,
                -0.1926162935109648,
                0.0887739656940318,
                -0.26613240404765753,
                -0.05048640443950053,
                -0.16150836535946,
                -0.12305515047403823,
                -0.07856080068543313,
                -0.05332616039474902,
                -0.17871505197154605,
                -0.0694934026864908,
                -0.11630478453021481,
                -0.2190410022320332,
                -0.13239783594078366,
                -0.014825328205370567,
                -0.15203385308403422,
                0.002392753974368024,
                -0.02983610213369811,
                -0.07523959387784572
            ],
            [
                0.15685813063938173,
                0.09115206697137003,
                0.0685390853812952,
                0.24776167790133308,
                -0.028225680636462004,
                0.1486099137203699,
                0.021838464264530042,
                -0.08814645319166847,
                -0.24540123548504408,
                0.15058143391490053,
                -0.06526208077483175,
                0.0067752680531011685,
                0.09403174901842552,
                0.06710211853453125,
                0.005568121103734011,
                -0.023831830680545184,
                0.01782575499721595,
                -0.07588635641720427,
                0.25194749987221987,
                -0.18962302708333348,
                0.024437531040186894,
                -0.3196655985611342,
                -0.05640861650083073,
                -0.005714069890178277,
                0.06738938916231277,
                -0.02099639261679493,
                0.21125657282130875,
                -0.10719941522618942,
                -0.10464564082429903,
                0.16281320316879566,
                -0.22472824797035706,
                -0.04274791582749496,
                -0.10425331632438958,
                0.3264805065605932,
                -0.32237377109680143,
                0.003911756115116045,
                -0.6044935739339926,
                0.0020282513004942263,
                0.889913762635817,
                0.07216475295886539,
                -0.2925209056004966,
                0.23757929449898135,
                0.14423059777371677,
                -0.39436469953764447,
                0.1646585103394516,
                -0.011981321272235909,
                -0.18942368212459912,
                -0.14161475959419143,
                -0.5668453406011469,
                0.0015386795621714123,
                -0.03885861587634337,
                0.04114204146394527,
                0.049867024449087145,
                -0.23168063295424568,
                -0.027700235012733356,
                -0.12533142866893696,
                0.1775111800433003,
                -0.1039348674437789,
                -0.2878877479805664,
                -0.30999976720339795,
                -0.17515097892891396,
                -2.7345187477163213,
                -0.20324043357992255,
                -0.09162067255648054
            ],
            [
                -0.10928887013591705,
                -0.028421956962031453,
                -0.08325291436846252,
                -0.31199919964008416,
                0.02343874452260033,
                -0.14916994667735417,
                2.6382440999240933,
                0.15679002069115325,
                0.1351047381527628,
                -0.3181753147675703,
                -0.25449358806387573,
                -0.27013414363686183,
                -0.056584896420977075,
                -0.08814126143773418,
                0.025424491010373224,
                -0.10485969026189279,
                0.5726863397450279,
                0.056153645805025174,
                -0.20983030966608462,
                0.11002135333297729,
                1.61231045025488,
                -0.03344249678936802,
                0.013430657530653643,
                -0.3153449428763162,
                -0.08288893835549903,
                -0.024194735776107777,
                -0.16680435345705474,
                -0.04218999803643827,
                0.20161708706012438,
                -0.37614156846418445,
                -0.014028046782182443,
                0.1377017118869194,
                -0.26601971064505947,
                -0.11311228795222265,
                0.012640571726948704,
                -0.08292309943192996,
                -0.15151684197735105,
                -0.003271223336528317,
                0.3031081768184928,
                0.051479641372181265,
                0.02202357923447746,
                -0.08462159977485477,
                -0.07447273261659973,
                -0.009536537023545164,
                -0.11511333189075953,
                0.1672233397945713,
                -0.0645697004101373,
                0.13089355463454952,
                -0.023007757428908825,
                0.017522747842100925,
                -0.12432020342999733,
                -0.10304220499023907,
                0.0844550119946723,
                0.008706023686566736,
                -0.0221016332569092,
                0.15338509408407605,
                -0.11499947463032352,
                0.002176534716381135,
                -0.11365101109064771,
                -0.09871730532581768,
                0.019294993479339467,
                -0.04623571636820062,
                0.006461607453428713,
                0.060328277530938085
            ],
            [
                0.11043519409688592,
                0.2415395246374231,
                -0.2601101209351346,
                -0.8036376668057571,
                -1.3138346174792361,
                0.5784825876751372,
                0.27249290670219906,
                0.3094385197763655,
                0.005929187130220886,
                0.3292362039322104,
                -0.03725689461433883,
                -0.8728675717655178,
                -1.114261283009434,
                0.47744688943333885,
                0.3636067599812075,
                0.5254836214109687,
                0.1834779107872085,
                0.14880107472474177,
                -0.21325229661864173,
                -0.5497958459745719,
                -0.7538248966870839,
                0.23676980224862043,
                0.1862787175865179,
                0.34091555007375746,
                0.096336397024183,
                -0.11131356483942106,
                -0.07586221530817731,
                -0.16865346084288826,
                -0.04264708639695631,
                0.10141579172739894,
                0.07113597792256039,
                0.14987787659087765,
                0.013378160320903517,
                -0.24675632724291674,
                -0.08273634343682891,
                -0.061537357960528845,
                -0.11113870055947661,
                0.12404349230937244,
                -0.027999167734085003,
                0.1575203792989108,
                -0.1207269789654125,
                -0.10598982039240985,
                -0.15699348834802618,
                -0.1757441156593866,
                -0.12066854097602432,
                -0.21022483863345304,
                -0.23456460656716902,
                -0.0542278324130807,
                -0.15125871945104616,
                -0.11036603170184837,
                -0.20223453013653203,
                -0.14390714325973705,
                -0.16020357459657059,
                -0.20675694727235258,
                -0.16408628844817166,
                -0.050712649570391906,
                0.11601406050671324,
                -0.041048753382742456,
                -0.029033611254518296,
                -0.025114816972927008,
                -0.012859839649957142,
                -0.18538531106539013,
                -0.18275573161865705,
                0.029938241992685535
            ],
            [
                -0.03741404003787793,
                -0.0011301981201628226,
                0.035954100633528815,
                0.15040185957849708,
                0.11702483196007077,
                0.22058095728304095,
                0.10453998579175958,
                0.12346296578488583,
                0.05976357275844945,
                0.11172575738679032,
                0.11439790434707718,
                0.09243158548810233,
                0.17073194520998733,
                0.13605280540356168,
                0.17399136981449978,
                0.06905841215194874,
                -0.10536095952459165,
                0.06638767881961431,
                0.023414693701880533,
                0.11135433419423225,
                0.1499351800665281,
                0.23876349324401488,
                -0.048590069425460326,
                -0.007236695095696953,
                0.015435969527736983,
                0.031387125683453476,
                -0.06720976281835078,
                -0.028419884280716585,
                0.06643416749005664,
                0.05540608458567647,
                -0.04344998701899946,
                0.06865123891332527,
                -0.03838916414384627,
                -0.15021942762702142,
                -0.15048395367381123,
                -0.2337713277029345,
                -0.0655777313192029,
                -0.14843465898272568,
                -0.2062732913907993,
                -0.19884438330634172,
                -0.13121877782576927,
                -0.11666093509956464,
                0.014972692135042619,
                0.025517699786752963,
                0.05974556745496127,
                0.820505674354589,
                -0.2962840238437186,
                -0.21236909461927764,
                -0.39394675463090767,
                -0.04626528052406818,
                0.7636365724248977,
                0.882032750960822,
                0.5840888986852358,
                0.6985810284072907,
                0.4944733151441224,
                -0.6655154077493887,
                0.06724022930961947,
                0.5853825733788312,
                0.7672206814096978,
                0.6704661936013477,
                0.24570066138400767,
                0.3892533785263087,
                0.17886344226350886,
                -0.0683574526667357
            ],
            [
                0.3419022849022488,
                0.2099123637893544,
                0.17826456121133358,
                0.3196932228545886,
                0.08698909415901612,
                0.3003796981151973,
                0.10791563741093801,
                0.359857508612058,
                0.15101794954153253,
                0.30409994033683174,
                0.3062758940538275,
                0.11394493271637963,
                0.21194375271168506,
                0.24671810782627498,
                0.41555314076798083,
                0.3425087075336197,
                0.252990576557892,
                0.28004740618407237,
                0.2890109429670013,
                0.07705772867032187,
                0.19835764111590728,
                0.17796390137040446,
                0.13326050656035413,
                0.04985575049566011,
                0.26129604779047344,
                0.3200174862952818,
                0.3204114657168241,
                0.03171693891220419,
                0.11163010797927672,
                0.0565784720738559,
                0.3439603734976609,
                0.06656509508194738,
                0.1214509220100034,
                -0.07607208393711552,
                -0.18215596504728393,
                -0.12136679289339153,
                -0.296723923119512,
                -0.053987239400586924,
                0.307226991751505,
                0.10844433567986123,
                -0.38345558264196083,
                -0.45496918284915083,
                -0.3551020766274728,
                -0.4441282164629879,
                -0.4531196761960595,
                -0.2190292487462355,
                0.3185327547591018,
                -0.28585321897974614,
                0.1775782285765172,
                0.06482230540738805,
                -0.17657229620004872,
                0.3245140603896713,
                0.8504141255144626,
                0.406837633988928,
                -0.32629395330003325,
                -1.5290083820423694,
                0.2192951909082453,
                0.1734904221727762,
                0.11623289883820687,
                0.028328707786978973,
                0.047389027238132916,
                -0.3690760321265048,
                -0.23302552956533945,
                -0.9348043788608223
            ],
            [
                0.3440958266364175,
                0.339495810743574,
                0.7378016957126659,
                0.4596945818510706,
                0.49672195492118004,
                0.5602151094768903,
                0.5156766519022371,
                -0.3036934357888259,
                0.9439913896000321,
                0.9543705839868207,
                0.9194504969895142,
                0.37542122498933717,
                0.24182004816155134,
                0.3062635162555716,
                0.16587125309703837,
                -0.04848297975621905,
                -0.11134314733588947,
                0.06533328589217731,
                0.08292060437416307,
                0.18291568297679092,
                0.4209744939489468,
                0.6366423343211978,
                0.8892422544561916,
                0.03192140792015544,
                -0.021455126126393824,
                0.3362546119850093,
                0.08544918649532776,
                0.16515644078281716,
                0.3301911865653834,
                0.37863720734492445,
                0.28063790202568145,
                -0.4495600772496921,
                -0.3086864354338324,
                -0.25174489356952834,
                -0.3111609564692291,
                -0.33911115172312617,
                -0.14217139934496714,
                0.243565997004936,
                0.22035528302370802,
                -0.5924482278227745,
                -0.16275968685332326,
                -0.1124494623141749,
                -0.39109432739016475,
                -0.39749247062187454,
                -0.2551528738526602,
                -0.20632960986556853,
                -0.29788624104192996,
                -0.8427824495654334,
                -0.16605005281049162,
                -0.1870978494441983,
                -0.3725471847442011,
                -0.6036210528909567,
                -0.3477578155881791,
                -0.41339081380133025,
                -0.3755430978325639,
                -0.6156314034270354,
                -0.35778968161927843,
                -0.20907720129474466,
                -0.520062264632401,
                -0.6166117301873895,
                -0.48431000673315805,
                -0.36779735476896125,
                -0.43612425004002675,
                -0.5001015534513484
            ],
            [
                -0.08598013924104074,
                -0.007031929456431256,
                -0.04570696770535292,
                -0.09966114138896955,
                -0.03295321394147547,
                -0.06813013687561362,
                0.08489622192771264,
                -0.012053235193860966,
                0.0030062156008313487,
                -0.08724231505752547,
                -0.053467632022505276,
                -0.10985331964607664,
                -0.07197796342434244,
                -0.04552487059732655,
                -0.0027217695919741986,
                -0.05329600903686143,
                -0.1116688659207798,
                -0.1501855712537994,
                -0.08971513025118708,
                -0.0407669970326787,
                -0.002828818434123897,
                0.03691595655912897,
                -0.03938131846267867,
                0.006786711129938946,
                -0.18667360012898263,
                -0.05122474832461709,
                -0.051416773767048146,
                -0.08909999195554921,
                -0.14757111700016132,
                0.0073272171985391404,
                -0.08514892912114204,
                -0.08321903816969496,
                -0.06524693592326108,
                0.029342511477188707,
                -0.01651695924176141,
                -0.2081143595402014,
                -0.21480283119969876,
                -0.27119569002218336,
                -0.1386442402219026,
                -0.293188079366492,
                -0.2177914982420944,
                -0.07072872763476439,
                -0.09311482096352365,
                -0.14991369073650385,
                -0.2741480451199885,
                -0.1757697918512934,
                -0.3588427773710738,
                -0.33295379430007455,
                0.08207192860047155,
                0.24694691374705133,
                -0.03529143778795765,
                0.12822649739127953,
                0.47422290277327206,
                1.147714471538923,
                1.0357178504978133,
                0.197525992073732,
                0.09143753974009898,
                0.058778192012881376,
                -0.053366095989829214,
                0.009482188648583769,
                0.47990247737059993,
                -0.3036348179421106,
                -1.027867739731709,
                0.6690545012607347
            ],
            [
                0.044872073720443474,
                0.014024250772575892,
                0.09023482717325712,
                0.0287682149537996,
                0.06432927054941708,
                -0.02552420271956994,
                -0.15155747418450943,
                0.4184248640749426,
                -0.0023633720888287233,
                0.23326919217483802,
                0.2570837642800265,
                0.11456698600146448,
                0.10899941850019676,
